2425 50
</s> 0.008005 0.008839 -0.007661 -0.006556 0.002733 0.006042 0.001882 0.000423 -0.007207 0.004437 -0.008713 0.002499 -0.001503 -0.001914 -0.006631 -0.003764 0.005159 0.006051 0.005938 0.003195 0.003090 -0.007605 -0.008192 0.009939 0.007603 0.006180 -0.001208 0.008031 -0.000990 0.001469 -0.000298 -0.005966 0.002625 -0.002675 -0.007651 0.009508 0.008759 -0.002190 -0.000452 0.001018 -0.007275 -0.008014 0.009109 0.000126 -0.005165 -0.006084 -0.006153 0.003394 0.000403 0.002662 
的 -0.019973 -0.453347 -0.321168 0.093167 -0.092920 -0.061489 0.349786 0.121402 0.107780 -0.300794 0.185261 0.335707 0.099322 0.001417 0.022581 0.128097 0.107764 0.030690 0.175090 0.249729 0.143654 0.367107 -0.215207 -0.113658 -0.123286 0.125514 -0.120848 0.101765 0.093885 -0.176485 0.172363 0.050348 0.056152 -0.082260 -0.016169 0.318208 0.191839 -0.257999 0.174870 -0.215024 0.300731 -0.366435 -0.227842 -0.039642 0.418251 -0.220752 -0.215907 0.075934 0.053151 0.073674 
。 -0.260161 -0.020170 0.132317 0.465170 0.117626 -0.326086 0.068941 0.109934 0.191394 -0.135537 0.148744 0.290006 -0.236130 -0.144601 -0.265996 0.299087 0.169160 -0.307838 0.068803 0.198180 -0.029294 0.419956 -0.219786 -0.090787 -0.031354 -0.179538 0.063706 0.476665 0.118493 -0.491206 -0.107513 0.148106 -0.081746 0.275772 0.097675 0.010322 0.062031 -0.258626 0.358464 -0.568217 0.114282 0.099866 0.084578 0.130144 -0.036357 0.393731 -0.277670 0.185170 -0.209968 -0.007216 
， 0.294502 -0.363535 -0.198137 -0.147584 0.108156 0.026315 0.561577 0.196141 0.288180 -0.464894 -0.104755 0.151342 -0.162257 -0.134286 0.151092 0.323755 -0.005705 0.038850 0.098653 0.077648 -0.324913 0.714295 -0.078692 -0.016025 0.243123 0.000956 -0.053899 0.106289 -0.164002 0.018530 0.134643 0.082396 0.185621 -0.301809 -0.407807 -0.025549 -0.048603 -0.048418 0.362598 0.036141 0.104866 -0.370537 -0.430815 0.068920 0.006453 -0.474112 -0.119220 0.228959 0.149233 -0.080770 
与 0.025039 -0.155520 -0.242081 0.166231 0.075983 0.073192 0.174501 0.311174 0.119846 -0.321536 -0.112023 0.390924 -0.623169 -0.206052 -0.218816 0.235505 0.034897 -0.201311 -0.106384 -0.006997 -0.506344 0.079561 -0.362002 -0.020082 0.232015 -0.196280 -0.168867 -0.221115 0.157325 -0.432266 0.210127 -0.353590 -0.081442 0.238204 -0.065620 0.010745 -0.106696 0.076094 0.422346 -0.413614 0.043127 -0.217270 -0.098236 -0.136792 0.138050 -0.302405 0.032566 -0.397420 0.049877 0.258680 
中 0.032563 0.049803 -0.516425 0.012697 -0.309068 -0.523518 0.367019 -0.275209 0.037337 -0.615868 -0.184513 0.171907 -0.177962 -0.136415 0.089479 0.370699 0.508482 -0.464090 0.162029 0.091385 -0.124456 0.276697 -0.351866 0.092347 0.059398 0.039756 -0.360595 0.434017 0.210248 -0.061199 -0.161323 0.131849 0.236977 0.222521 -0.355001 -0.205963 -0.092103 -0.313441 0.382748 -0.053746 0.333539 0.030819 0.270672 -0.002881 -0.009965 -0.003292 -0.303991 -0.037649 0.297195 -0.336061 
和 -0.016864 -0.235064 -0.238447 -0.334084 -0.068744 0.037331 0.184429 0.286751 0.364987 -0.555885 -0.013335 0.125730 -0.323584 -0.463517 0.201520 0.116019 -0.020887 0.096719 -0.261557 0.057248 0.001194 0.078863 -0.012005 -0.346764 0.237982 -0.229107 -0.010434 0.276305 0.278060 -0.204475 -0.362360 0.094712 0.147664 -0.225305 0.093693 0.026871 0.069560 -0.191541 0.502062 -0.189274 0.137055 -0.396227 -0.503222 0.100228 0.535629 -0.374728 -0.050773 0.032630 0.535893 -0.156558 
基因 0.348519 0.129139 -0.183884 -0.210533 -0.046250 -0.442639 0.269641 -0.062043 0.266666 -0.590944 -0.204958 0.223947 -0.132692 -0.202343 -0.158053 0.241065 0.421972 -0.290806 -0.058206 0.117134 -0.346292 -0.012666 -0.299218 0.036911 0.149829 -0.160790 -0.352846 -0.126871 0.099134 -0.252478 -0.096550 -0.450126 0.287538 0.207028 -0.234206 -0.217145 0.276404 -0.171034 0.075235 -0.484170 0.055838 -0.214872 -0.060153 0.051673 0.340738 -0.429416 -0.251817 -0.167744 0.120564 0.081294 
- 0.091647 -0.124086 -0.004693 -0.216034 -0.255182 0.014547 0.465112 0.088114 0.361591 -0.393604 -0.091657 0.314126 -0.238791 -0.339683 -0.155248 0.551050 0.040547 0.141608 -0.338661 -0.206736 -0.450969 0.580257 0.116071 -0.090930 0.446114 -0.290822 0.027093 -0.107607 0.401074 -0.382148 0.158634 -0.155047 0.067404 -0.091054 0.025635 0.066254 -0.296380 -0.228249 0.268173 -0.251376 -0.100159 -0.593726 -0.295183 -0.377054 0.198457 -1.041246 -0.047711 -0.487619 -0.387791 0.033777 
在 -0.293313 -0.526575 -0.516797 -0.249639 0.190575 -0.086125 0.176238 -0.059283 0.010244 -0.401748 -0.167482 0.220885 -0.070749 0.120828 0.058791 0.299715 0.046777 -0.172946 -0.084059 -0.214366 0.035886 0.387115 -0.001864 0.039974 0.095336 0.028601 -0.449471 0.250528 -0.115820 -0.144667 0.328140 0.497671 0.351301 0.179271 -0.362243 -0.240108 -0.012299 -0.031771 0.650842 -0.045069 0.253523 0.153241 0.189607 -0.186916 0.329703 -0.272422 -0.248418 -0.127324 0.290542 -0.321666 
多态性 0.105433 0.213978 -0.288579 -0.065530 -0.266081 -0.126733 0.266162 -0.100226 0.233549 -0.215891 -0.082286 0.083079 -0.264535 -0.163218 -0.276724 0.144600 -0.139101 -0.059400 -0.153861 0.180646 -0.376524 0.278716 -0.184527 -0.300824 0.246007 -0.022599 -0.189748 0.004706 0.214498 -0.159648 0.008972 -0.605579 -0.000982 0.028021 -0.264150 -0.155934 0.168215 -0.086077 0.242679 -0.263348 0.162632 -0.552640 -0.143576 -0.163336 0.219125 -0.630663 0.189005 -0.079513 -0.007457 -0.004677 
可能 0.060384 -0.133029 -0.080164 0.180316 0.038070 -0.407752 0.208328 -0.129846 0.178629 -0.289389 -0.157721 0.533172 -0.223600 0.078385 -0.148848 -0.124370 -0.086447 -0.219310 0.390259 -0.134086 -0.120504 0.625085 -0.185651 -0.090039 0.136592 -0.045408 -0.191521 0.124024 0.208148 -0.232481 0.279389 0.012286 0.312974 -0.019757 -0.377606 -0.125909 0.122648 -0.142287 0.674107 -0.028025 -0.154779 -0.030872 -0.059642 0.250429 0.066595 0.073052 -0.175961 -0.142660 0.058873 0.319085 
我们 0.029595 -0.102044 -0.164431 -0.103096 0.173948 0.162877 0.097394 -0.053680 0.351556 -0.570841 -0.230666 0.242209 -0.002573 -0.164521 0.096179 0.306141 -0.268394 -0.281195 -0.409457 -0.055833 -0.214422 -0.092386 0.101403 -0.315321 -0.239339 0.131800 -0.159706 0.229479 -0.121951 0.158737 0.440149 0.165805 0.081437 -0.361145 -0.014850 0.157582 0.278307 -0.257158 0.120057 -0.247251 0.165593 -0.509851 -0.023015 -0.047867 0.274919 -0.801687 -0.178407 0.155637 -0.209747 0.015133 
研究 0.052470 -0.208221 -0.304874 -0.320658 -0.319682 0.083294 0.357538 -0.198791 0.211673 -0.469475 -0.039293 0.096594 -0.292137 0.058198 0.232680 0.154156 -0.271038 -0.171654 -0.133141 -0.152571 -0.111641 0.224028 -0.198788 0.319090 0.039242 0.167739 -0.062495 0.040668 -0.175587 0.134394 -0.186596 -0.142270 0.153924 -0.344102 -0.007517 0.002159 0.186984 -0.519548 0.460007 0.164285 0.221393 -0.146916 -0.157881 -0.132862 0.307914 -1.091500 -0.523362 -0.062728 0.012892 -0.105760 
风险 0.111501 0.065997 0.120383 0.729546 0.774209 -0.367816 0.006125 0.050939 0.178383 0.133140 0.289827 0.193540 -0.375507 0.060581 -0.392306 0.114446 -0.178178 -0.118690 0.039611 0.325752 0.140673 0.314876 -0.031665 -0.126441 -0.288685 -0.100885 0.277870 0.420535 -0.025800 -0.297016 0.202681 -0.048020 0.061292 -0.106505 -0.118870 -0.121033 0.359479 0.011180 0.223011 -0.427647 0.008640 -0.056210 -0.095275 0.209774 0.384030 0.295275 -0.089332 -0.358568 0.189019 -0.096766 
表明 0.050737 -0.269449 -0.368708 -0.248951 0.278683 -0.105402 0.576199 -0.008811 0.300280 -0.762781 -0.012849 0.182767 0.106183 -0.020477 -0.310664 0.014195 -0.030324 -0.167326 0.015976 -0.012535 -0.038473 0.400192 -0.232046 -0.311627 0.003096 0.114506 -0.360466 -0.071345 -0.271914 0.076016 0.459851 -0.277195 -0.141121 -0.225730 -0.194963 0.087170 -0.345246 0.087208 0.532038 0.031825 0.016094 -0.108084 0.035459 0.192362 0.173001 -0.211904 -0.111604 0.032964 0.647151 0.137904 
相关 0.390823 0.345094 -0.064903 -0.116772 0.041275 0.005428 -0.058986 -0.079485 0.236035 -0.172358 -0.192774 0.033458 -0.770809 -0.240195 -0.124228 -0.120481 0.301019 -0.332835 0.223074 0.346500 -0.487410 0.258239 -0.449223 -0.054700 0.296412 -0.086138 -0.103848 0.110303 0.113048 -0.486890 0.134340 -0.358479 -0.044162 -0.117226 -0.491672 0.066043 -0.019503 0.258461 0.366160 -0.425552 -0.044690 -0.196433 -0.513765 0.042742 0.422705 -0.123145 0.159962 0.004410 0.753544 0.119503 
/ 0.274081 0.563894 0.350880 -0.344749 -0.212370 -0.367550 0.018669 0.132866 0.880157 -0.513463 0.021746 0.379177 -0.464122 -0.168218 -0.030415 0.056492 0.290695 0.283204 -0.703788 -0.320074 0.015319 -0.187255 0.291064 -0.390331 0.460691 0.090860 -0.320825 -0.213370 -0.024571 -0.813549 -0.590659 -0.816006 0.536949 0.107644 0.121590 0.019626 0.345413 0.363768 0.599097 -0.533681 -0.299487 0.092018 -0.154414 0.441449 0.393622 -0.362598 0.296678 -0.393162 -0.009117 0.344956 
是 0.272249 -0.679469 -0.491827 -0.165410 -0.219194 -0.218771 0.130543 0.198174 0.092145 -0.313530 0.212099 0.597238 0.094092 -0.239913 -0.018282 0.240908 -0.027703 -0.194005 -0.216314 -0.124745 -0.137296 0.557704 -0.433253 0.114992 0.134425 0.219037 -0.076634 0.385457 0.394814 -0.176325 0.286007 0.042325 0.080433 -0.127691 -0.337651 0.084144 0.373541 0.275626 0.098565 -0.138668 0.361122 -0.006567 -0.678130 0.211088 0.397339 -0.145466 0.047040 -0.233661 -0.107241 0.285532 
结果表明 0.294770 0.131794 -0.400743 0.035949 -0.317734 -0.324873 0.127393 -0.215590 0.189137 -0.257908 -0.145945 0.194992 -0.189022 -0.010534 0.063844 0.370101 0.192130 -0.218094 -0.058955 0.023801 -0.190106 -0.069872 -0.074166 0.029772 -0.247307 0.141675 -0.198769 -0.137457 0.128741 0.174625 0.127297 -0.220297 0.205998 -0.422458 -0.439346 0.220674 -0.175990 -0.038617 -0.339138 -0.254044 0.195293 -0.009733 -0.302005 0.194763 0.250230 -0.813065 -0.198405 -0.027381 -0.182807 0.398273 
之间 -0.603088 -0.410251 -0.192118 0.274414 0.642697 0.266098 0.521463 0.037285 0.327108 -0.388296 0.350697 0.126533 -0.460174 -0.286205 -0.105060 0.320359 0.164179 -0.162734 -0.601620 0.362362 -0.672545 0.386243 -0.192059 -0.406701 0.456361 0.018636 0.445842 -0.088075 0.530612 -0.137986 0.497711 0.144231 -0.323259 0.070716 0.196308 0.329318 -0.280499 -0.148284 0.536922 -0.205991 -0.052180 -0.465998 0.355259 -0.367324 0.478127 -0.260734 0.129773 -0.280183 0.137395 0.091553 
对 0.188591 -0.131693 -0.230308 0.464561 -0.119567 -0.324944 -0.030395 0.195581 -0.114232 -0.181767 0.136903 0.300385 0.257473 -0.410456 0.018132 0.235360 0.098427 -0.000838 0.140740 -0.019396 0.154345 0.162278 -0.582888 -0.103276 0.201190 -0.136203 -0.201806 0.022305 0.227214 -0.278233 0.156934 0.027853 -0.002537 -0.282800 -0.007819 -0.048135 -0.347214 -0.043491 0.328666 -0.498905 0.009714 0.271154 0.056788 0.345229 0.014478 0.019471 -0.482819 -0.080381 0.047659 0.601649 
易感性 0.042480 -0.050969 -0.266315 0.092448 -0.149362 -0.536570 0.164508 0.157135 0.232250 -0.317339 0.106662 0.080370 0.464646 -0.412965 0.293538 0.143195 0.126423 -0.230557 0.320998 -0.165522 -0.167019 0.893365 -0.703665 0.019698 0.504208 -0.027989 -0.401690 0.475555 0.439752 -0.353852 0.095148 -0.020598 0.057627 -0.303942 0.204964 0.055432 0.178545 -0.214581 0.377921 -0.296775 -0.034115 0.220562 -0.280007 0.305453 -0.049109 0.044669 -0.055757 0.166939 -0.214155 0.162156 
这些 -0.040423 -0.386315 -0.311647 -0.150416 -0.094300 -0.025413 0.265560 0.119614 0.214518 -0.443278 -0.090666 0.401522 0.192880 0.455182 -0.049453 0.472433 -0.136613 0.055076 0.332376 -0.037448 -0.096679 0.316133 -0.197353 0.481211 -0.139714 0.005310 -0.508088 0.094154 -0.481136 0.200311 -0.020880 0.141620 -0.241819 -0.353829 0.058932 -0.018080 0.216051 -0.300960 0.011884 -0.051238 0.247959 -0.276154 -0.244024 0.204965 0.133574 -0.568540 -0.080803 0.402429 0.243154 0.232569 
等位基因 -0.415441 -0.399079 -0.135354 0.476540 0.054717 -0.440912 -0.020657 -0.098328 0.589001 -0.167585 0.279564 -0.028874 -0.134643 -0.501968 0.275889 0.060775 -0.281591 -0.286983 -0.199248 -0.052360 -0.297229 0.428518 0.010421 -0.312795 0.385009 0.148821 -0.051160 0.098968 0.555230 -0.350839 0.111321 0.209767 0.168384 0.205309 -0.229425 -0.093682 0.282699 -0.521316 -0.077550 0.390813 0.080622 -0.298756 -0.434021 -0.056587 0.300742 -0.204446 0.086148 -0.028455 0.253874 0.307257 
关联 -0.164551 -0.597829 -0.212539 0.134193 0.504393 0.567817 0.790568 0.229825 0.437830 -0.596244 0.658051 -0.134228 -0.437214 0.009069 -0.001156 0.058842 0.106043 0.068983 -0.099951 0.336124 -0.488874 0.274231 -0.221357 -0.153411 0.429406 -0.136296 0.221600 0.146376 0.388259 -0.181264 0.579497 0.195093 -0.055660 -0.031560 0.164083 0.158460 -0.131369 -0.471065 0.505607 -0.155946 0.095903 -0.268802 0.248936 -0.301895 0.469154 -0.280890 0.051275 -0.302678 -0.373097 0.239637 
患者 -0.336436 0.267904 -0.122576 -0.461856 -0.278500 -0.279791 -0.069665 0.344975 0.284719 -0.525301 0.196500 0.001545 -0.360749 0.100316 -0.164808 0.017153 -0.086724 -0.068357 -0.568432 0.074356 -0.356091 -0.251265 -0.044079 -0.373542 -0.193321 -0.195356 0.426418 -0.074463 0.356287 -0.170229 0.087677 0.173019 0.561685 0.182588 -0.266131 0.048222 -0.008163 0.037807 0.668593 -0.504692 0.216648 -0.041009 -0.375257 0.074493 -0.097941 -0.453162 0.056783 -0.049690 0.028056 0.067649 
作用 -0.505757 0.131339 -0.350722 -0.043921 0.019347 -0.602591 0.477115 -0.058911 -0.015440 -0.430274 -0.250684 0.449521 -0.030764 0.362817 0.338615 0.302459 0.242785 -0.325507 0.525808 0.110159 0.468556 0.399869 0.306782 -0.147467 -0.047897 0.252323 -0.820772 0.542772 0.260301 -0.275353 0.047097 0.609805 0.008438 0.408434 -0.312734 -0.189874 -0.200475 -0.333549 0.432922 -0.192884 0.673478 0.240890 0.453701 -0.171130 -0.012895 0.669680 -0.458458 -0.013300 -0.243929 0.163393 
基因型 0.236447 -0.166666 -0.082504 -0.086605 0.250368 -0.176359 0.106573 0.244197 0.303811 -0.319969 0.125566 0.505429 -0.391361 -0.203543 0.008488 0.251305 -0.261662 0.099963 -0.350890 0.139510 -0.346329 0.311267 0.039294 -0.515134 -0.305119 -0.083824 0.125536 -0.097059 0.107703 -0.130822 -0.263162 -0.109885 0.389076 0.300130 -0.232935 0.131712 0.187964 -0.215108 0.529007 -0.417127 0.082024 -0.246783 -0.337876 -0.082280 0.073879 -0.578943 0.260395 -0.170779 0.376091 0.084031 
没有 -0.273869 0.302773 -0.138598 -0.183738 0.505820 0.358566 0.332950 0.371461 -0.017259 -0.227482 0.125385 0.329510 -0.143572 -0.526144 0.162557 0.309200 -0.073657 -0.311894 -0.085439 0.063445 -0.336749 0.086680 -0.209604 -0.250111 -0.289727 0.158951 0.117934 0.212521 0.155918 -0.317298 0.216733 0.061733 -0.202357 -0.098161 0.036854 0.296711 -0.169707 -0.191799 0.357385 -0.248034 0.728294 -0.557749 0.146088 0.018775 0.151278 -0.049177 -0.149211 0.192958 0.533409 0.307721 
有 -0.437671 -0.014630 -0.164698 -0.014676 0.267217 0.029609 0.208466 0.553332 -0.173898 -0.226014 0.411658 0.414167 -0.249024 0.447361 0.039419 0.276944 -0.194325 -0.057903 -0.007281 0.251451 -0.341328 0.467476 -0.378191 -0.011114 0.112789 0.039949 0.015693 0.070042 0.007880 0.086691 0.099565 0.112428 -0.340833 -0.625908 0.073991 -0.193161 -0.171287 -0.181533 0.218443 -0.511377 -0.187214 0.255256 0.612243 0.287341 -0.193196 -0.048560 -0.172252 -0.546558 -0.030708 0.468313 
或 0.041733 0.394218 0.010350 0.204408 -0.198176 -0.363614 0.052109 0.305893 0.384508 -0.206899 0.290549 0.271519 -0.040007 -0.303101 0.370313 0.240465 0.237950 0.124504 0.077769 0.371646 -0.081311 -0.219817 -0.379719 -0.312373 0.086041 0.004239 -0.209845 0.126916 0.218788 -0.175563 -0.124847 0.097497 0.018411 -0.118981 0.219568 -0.185899 0.012050 0.017357 0.383977 -0.169887 0.103781 -0.137662 -0.341073 0.083088 0.101030 -0.159436 -0.158892 -0.173435 0.128466 0.336777 
精神分裂症 0.014380 0.204168 -0.742600 -0.278864 -0.285671 0.216414 0.287802 0.116353 -0.377424 -0.352379 -0.512554 -0.094671 0.133428 0.229713 -0.317090 -0.093324 -0.006462 -0.228188 0.380392 -0.135137 0.258847 0.772186 -0.367021 0.180905 -0.041118 0.301713 -0.049595 0.656686 -0.316612 -0.198898 0.330641 -0.279558 -0.107813 -0.398709 -0.663014 -0.144174 -0.023327 -0.236443 0.227010 -0.267272 -0.218852 0.395097 0.584711 -0.237688 0.583814 0.296637 -0.152974 -0.306940 0.118722 -0.130452 
（ 0.301997 -0.226107 -0.162020 -0.352793 -0.588257 0.112115 0.460716 -0.002394 -0.215407 -0.447030 0.346127 0.359316 -0.398476 0.330174 0.538548 0.233807 -0.416586 -0.266843 -0.861811 0.294427 -0.175830 0.266526 0.006659 -0.420243 0.417383 -0.122988 0.233100 -0.157505 0.112362 0.227963 -0.033623 0.228421 -0.206670 -0.316696 -0.324706 0.044552 -0.153453 -0.177765 0.516696 0.013378 0.006510 0.519507 -0.212351 0.043449 0.462609 -0.475619 0.327058 -0.408807 -0.039856 0.026282 
） 0.061318 0.122955 0.164435 -0.342656 -0.791719 0.084801 0.330714 0.137070 -0.054726 -0.120976 0.389400 0.662907 -0.289161 0.287332 0.349070 -0.170946 -0.356332 -0.171405 -0.725603 0.438478 -0.339091 0.212177 0.224986 0.000384 0.678906 -0.260469 0.331645 0.178833 0.094468 0.118419 0.099959 0.252633 -0.369478 -0.250902 -0.133200 -0.152818 -0.365616 -0.248445 0.493972 0.110632 -0.128147 0.953134 -0.403231 0.383972 0.542920 -0.480309 0.408072 -0.342242 -0.198156 0.081646 
影响 -0.050452 -0.338511 0.100893 0.135793 -0.271786 -0.062051 0.134165 0.297181 0.467368 -0.361152 0.015966 -0.003579 -0.005550 -0.570836 -0.280154 0.134652 -0.155171 -0.096852 0.398356 0.217620 0.028395 0.772446 -0.648452 -0.324629 0.132330 -0.222964 -0.333798 0.076394 0.405381 -0.384639 0.145331 -0.028790 -0.138508 -0.022467 -0.238265 0.423839 -0.250455 -0.168909 0.492609 -0.242104 -0.091527 -0.164596 -0.059891 0.206928 0.148041 0.200223 -0.004125 0.207257 -0.182795 0.455827 
并且 0.348269 0.072357 -0.565335 0.192267 -0.133555 -0.681718 0.255353 -0.228582 -0.128520 -0.439520 -0.149777 0.418920 -0.696964 0.097387 -0.427882 0.022509 0.358325 -0.021202 0.324527 -0.021554 -0.296329 0.267520 -0.447998 0.026608 0.036123 0.222122 -0.261211 0.273133 0.502952 -0.632564 0.140833 -0.292984 0.269117 0.086533 -0.796943 -0.373815 0.180401 -0.581678 0.039510 -0.551420 0.563160 -0.083160 0.118954 0.009700 0.283277 -0.266286 -0.120150 -0.716111 -0.249729 -0.052150 
人群 -0.158356 0.158638 -0.643193 0.492467 -0.350301 -0.596619 0.278440 -0.156975 -0.146851 -0.368904 -0.281292 0.422658 -0.220149 -0.156114 -0.129064 0.313363 0.314640 -0.249107 0.114445 0.542728 -0.303270 -0.310459 -0.647293 -0.219607 0.131278 0.349762 -0.096715 0.255128 0.144778 -0.263065 0.165811 0.135206 -0.115018 0.326840 -0.486621 -0.500013 0.527209 0.091876 -0.277135 0.090658 0.279272 0.205876 -0.177621 0.090333 -0.070488 -0.026833 0.095606 -0.265647 -0.040385 -0.074370 
不 -0.061767 0.148745 -0.422413 -0.017843 -0.317131 -0.401020 0.027803 0.208065 0.206006 0.004868 -0.162569 0.169209 -0.496336 0.094626 -0.243295 -0.079415 0.291014 -0.064498 0.139575 -0.293606 -0.451575 0.180503 0.166065 0.232283 0.037814 0.060079 -0.256432 0.024539 0.078363 -0.581816 -0.164817 -0.155064 -0.270983 -0.458447 -0.133600 0.218169 -0.484074 0.193047 0.181283 -0.530826 0.069935 -0.543441 -0.505490 0.329027 0.327771 -0.673468 -0.623935 -0.126399 0.260670 0.161139 
因素 0.486724 0.271697 0.250431 0.495231 0.180219 -0.629949 0.023189 -0.293872 0.331290 0.018501 -0.189560 0.379721 -0.158563 -0.064176 -0.416902 0.355029 -0.034578 -0.521216 -0.179746 0.075483 -0.096234 0.375344 0.025722 0.048420 -0.168815 -0.025872 0.266883 0.199111 0.097034 -0.110105 -0.076291 0.019853 0.369312 0.187698 -0.157109 -0.231945 0.339969 0.044279 0.206185 -0.697596 0.192067 -0.294655 -0.272128 0.399067 0.181267 0.122301 0.033911 -0.428731 -0.299582 -0.252965 
1 0.206205 -0.396409 -0.416659 -0.372643 -0.495217 -0.415334 0.241443 -0.091777 0.516075 -0.415848 -0.219010 -0.329374 -0.245039 -0.592373 0.433758 -0.191233 0.376222 -0.199398 0.039771 0.066124 -0.228015 0.870531 -0.228546 0.002055 0.073152 0.252951 0.024708 0.313018 0.727563 -0.416599 -0.244628 -0.194459 0.356922 0.188388 -0.110045 -0.062825 -0.023043 0.017729 0.415624 -0.267013 0.410164 -0.336363 -0.379424 -0.322430 0.593062 -0.662805 0.483396 0.113358 -0.392214 -0.257831 
发现 -0.100479 -0.494317 -0.578980 0.143211 0.252034 0.713780 0.457077 0.152927 0.390811 -0.071104 0.073828 0.471765 -0.332224 -0.788435 0.015614 0.441115 -0.390308 0.003661 -0.313614 0.435868 -0.196023 0.059975 -0.126878 -0.193819 -0.352734 0.096117 0.225516 0.138034 -0.157102 -0.107883 0.094119 0.346493 0.044033 -0.430249 0.258393 -0.204810 0.086072 -0.014375 0.096946 0.025880 0.225828 -0.239124 0.193969 0.180525 0.400864 -0.125823 -0.110487 -0.113061 0.278641 -0.179568 
这 -0.007459 -0.592167 -0.470865 -0.157226 0.185154 0.295623 0.475616 -0.054397 -0.312159 -0.327203 -0.311686 0.509835 0.283332 -0.103801 0.116938 0.282114 -0.356352 0.022198 0.305415 -0.378179 -0.304500 0.127379 -0.052046 -0.405959 -0.015566 0.271361 0.236765 0.105929 0.508328 -0.238362 0.970540 -0.032640 0.265069 -0.019612 -0.012237 -0.157267 -0.233086 -0.023505 0.569113 -0.040081 0.382660 0.426132 -0.032083 0.079244 -0.259695 0.302594 -0.004652 -0.076080 0.186637 0.111307 
阿尔茨海默病 0.082120 -0.354762 0.048585 0.800092 0.964069 -0.596521 0.079634 0.108327 0.276047 -0.116779 -0.187676 0.291785 -0.536304 -0.197832 0.207173 0.502899 -0.283849 -0.650548 -0.366147 0.211701 -0.126345 0.059161 0.174375 0.320685 0.005786 0.345501 -0.111686 -0.330079 -0.050720 -0.519740 0.448010 0.508601 0.365242 0.056669 -0.177886 -0.354435 -0.152003 -0.279658 -0.233630 0.258798 0.730558 0.263938 -0.091900 -0.408267 0.460722 0.372261 -0.486804 -0.014987 0.262218 0.148532 
数据 0.328175 -0.130910 -0.216951 -0.560124 -0.131182 -0.414092 0.479695 -0.602076 0.241784 -0.763794 0.020540 0.240001 0.004194 0.070839 -0.148526 0.481152 0.252651 0.850775 0.302511 -0.005956 0.180388 -0.136230 -0.212639 -0.271749 0.137751 0.331961 -0.403533 0.035630 -0.341418 0.133490 0.343612 0.430635 -0.092964 -0.415735 -0.021936 0.100358 0.206978 -0.174852 -0.060252 0.038890 0.058382 -0.377021 -0.491805 0.358443 -0.044211 -1.010763 -0.087470 0.098368 -0.115250 0.306463 
增加 -0.037903 -0.046923 0.132882 0.688591 0.373366 -0.305890 -0.196939 -0.427164 0.278971 0.032945 0.382567 0.325502 -0.599015 -0.096116 -0.164510 0.045427 0.345125 -0.313828 0.147440 -0.327842 -0.321985 0.644218 0.075813 -0.496682 0.042263 -0.013189 0.107606 -0.037956 0.435638 -0.557699 -0.090049 -0.353466 0.222957 0.133172 -0.222603 0.088184 0.127545 0.160059 0.065365 -0.215163 0.108166 -0.047335 -0.248218 0.090625 0.067487 -0.102010 -0.048720 -0.242481 0.369380 0.019589 
有关 -0.025464 -0.385268 -0.255005 0.415459 0.444005 -0.348954 -0.015722 -0.183275 -0.395723 0.063293 -0.448461 0.217347 0.139771 -0.159229 -0.029137 0.445525 -0.369156 -0.693270 0.058783 0.231325 -0.206133 -0.070415 -0.194698 0.049935 -0.054251 -0.199031 -0.365347 -0.488279 0.305250 -0.670006 0.277599 0.212203 0.482694 -0.144623 -0.388188 -0.123763 -0.066253 -0.095958 0.143349 -0.151250 0.176318 0.519692 0.555739 -0.312586 0.338390 0.131048 -0.536285 -0.074991 -0.142134 0.187326 
、 0.439319 0.577679 0.329696 0.056960 -0.151424 -0.273157 0.257613 0.713130 0.934927 -0.229770 -0.478535 0.528675 -0.165482 -0.822824 0.264266 0.311742 0.194668 0.287085 -0.880543 -0.280110 -0.209048 -0.279352 0.360992 -0.042780 0.005158 0.401041 0.117242 -0.318828 -0.163062 -1.074938 -0.489922 -0.681461 0.669243 0.029533 0.877197 0.215203 0.270704 0.016414 0.705038 -0.370938 0.284050 -0.101572 -0.237877 0.550859 -0.022388 -0.881972 -0.059978 -0.343732 0.012966 0.243411 
了 -0.038219 -0.016887 -0.267721 -0.060262 -0.054466 -0.387118 0.347627 0.122055 0.041111 -0.831141 0.359831 0.372040 0.117643 0.185579 -0.281855 0.658341 0.536019 -0.295064 0.196570 -0.074236 0.706715 0.413619 -0.137034 0.061957 -0.219067 -0.133930 -0.240196 0.701033 -0.281819 0.340509 0.374280 0.381712 -0.304689 -0.171119 0.153248 0.081354 0.032357 -0.334652 0.327826 -0.009143 0.235069 -0.211550 0.220156 -0.045102 -0.091396 0.277417 0.078230 0.373842 0.154948 -0.380608 
发展 0.267348 0.287300 -0.113297 0.189853 -0.263646 -0.371444 -0.267545 0.055095 -0.057229 -0.107029 -0.304141 0.189035 -0.239693 0.104272 -0.055423 -0.094195 -0.029122 -0.322371 0.173677 0.447079 -0.255717 0.235835 -0.476798 0.165638 0.043438 -0.092798 -0.107164 0.509907 0.093830 -0.246163 0.495420 -0.475657 -0.269088 0.122813 -0.069361 -0.014997 0.199140 0.294614 0.336419 -0.570719 0.085888 0.061188 -0.128283 0.137882 0.295591 0.066302 -0.289160 0.265624 0.017385 0.074083 
结果 -0.261299 0.033864 -0.372050 -0.496837 0.232284 0.029116 0.275374 -0.303121 0.264717 -0.413265 -0.331845 0.565624 0.438975 0.052636 0.219503 0.182480 -0.257088 -0.004147 -0.106089 0.034394 0.422206 0.217987 -0.537524 0.187489 0.225312 0.445301 0.098372 0.080701 -0.497559 0.593464 0.397732 0.387462 0.092992 -0.529077 0.196192 0.475315 0.021855 -0.299586 0.288325 0.078910 0.148673 0.099361 -0.166394 0.357769 0.345878 -0.325488 -0.470589 0.250288 0.197926 -0.022069 
4 0.042473 0.460437 0.640160 0.575722 0.154609 -0.449767 -0.212583 0.204452 0.511281 -0.608967 -0.037955 0.222598 -0.349031 -0.519986 0.393586 0.834920 -0.082176 -0.457152 -0.276104 -0.457786 -0.755635 0.100950 0.188835 -0.352874 0.592894 0.602465 -0.134152 -0.227503 -0.048056 -0.105117 0.505680 0.189046 0.741604 0.229227 -0.366951 -0.437815 -0.277957 0.149498 -0.076156 0.156303 -0.094273 0.264721 -0.300752 0.128812 0.322004 -0.002137 -0.199553 -0.305349 0.104853 0.053050 
日本 -0.232841 0.344532 -0.186288 0.121592 -0.422906 -0.312697 -0.190768 0.071379 -0.299859 -0.271897 -0.207659 -0.356147 0.341671 -0.010306 0.146158 0.131514 -0.014805 -0.170283 0.032777 0.555190 -0.419898 -0.209903 -0.561289 0.123508 -0.325589 -0.139172 -0.455551 0.304608 0.180013 -0.257666 0.391102 -0.274673 -0.098720 -0.005084 -0.345356 -0.145491 0.419940 -0.434466 0.016896 -0.296961 -0.129925 0.162280 -0.056688 0.145644 -0.234862 -0.358623 -0.107015 0.119041 -0.425921 0.254444 
遗传 0.354532 0.094440 -0.166827 0.710476 -0.158741 -0.351127 0.411896 -0.241120 0.016010 -0.036213 -0.079800 0.300099 -0.282191 0.144649 -0.286065 0.221729 -0.068309 -0.536160 0.029553 0.220568 -0.519922 0.155310 -0.231154 0.226040 -0.554880 0.170897 -0.070644 0.753773 -0.216383 -0.065698 0.208597 -0.014276 -0.171506 0.188019 -0.323617 -0.040393 0.177756 -0.524561 0.139605 -0.477985 0.238337 0.020833 -0.113170 -0.268938 0.292039 0.072958 0.015516 -0.219506 -0.266396 0.206265 
突变 0.232398 0.335701 -0.452754 0.050379 -0.113818 0.169032 -0.005108 -0.228524 -0.160245 0.717715 0.346643 0.751009 -0.029588 -0.224120 0.183235 -0.182640 0.075957 0.067797 0.061352 0.104410 -0.303253 -0.230996 0.136579 -0.393774 -0.645379 -0.073716 0.263562 -0.328180 0.020984 -0.292941 -0.039595 -0.110553 -0.008205 0.076753 -0.280564 0.147550 0.117985 -0.167715 0.856009 -0.317490 0.638027 -0.486702 -0.038589 -0.021497 0.251391 -0.831680 -0.275894 0.083990 0.370311 -0.475284 
得出结论 0.197757 0.030952 -0.245457 0.186515 0.051120 -0.274420 0.161102 0.125446 -0.014149 -0.139143 -0.211013 0.052874 -0.144031 0.007671 0.254238 0.538956 -0.244333 0.256388 0.016743 0.188843 0.135883 -0.279991 -0.296363 -0.441941 0.051256 -0.162441 0.037682 -0.302822 0.066272 0.010933 0.249770 0.270302 -0.009079 -0.556988 -0.298783 0.015099 0.120003 -0.135526 -0.259729 0.055260 0.056441 0.087294 0.103812 -0.512207 -0.125110 -0.976950 -0.601630 0.046449 -0.046184 0.173058 
前列腺癌 -0.101756 0.570726 0.147990 0.427800 0.016015 -0.019439 -0.220169 -0.206012 -0.354232 0.161465 -0.004695 0.350381 -0.424685 0.306451 0.496856 -0.236888 -0.155504 -0.509828 -0.057848 -0.107627 -0.158671 0.051329 -0.092486 0.240837 -0.159075 -0.131406 0.274387 0.042697 -0.260616 -0.351516 0.212054 0.033430 -0.473626 -0.449220 -0.743609 -0.182892 0.231185 -0.119236 0.396486 -0.148560 -0.362941 0.237496 0.232220 0.119497 -0.042223 -0.410132 -0.556828 0.160249 0.438756 0.018779 
主要 0.062737 0.039047 -0.063735 0.625309 -0.463315 0.018795 0.517623 0.047928 0.034447 0.010164 0.069228 0.654236 -0.218721 0.378196 0.161103 0.215958 0.514705 -0.317697 0.404967 0.299957 0.105655 0.091658 0.132256 0.025762 -0.161651 0.151391 -0.152416 0.334341 -0.074990 -0.171844 -0.056893 -0.017149 0.118115 0.084707 -0.559912 0.117411 -0.297731 0.117751 -0.021889 0.014270 0.528648 0.280552 -0.688830 0.364925 -0.030136 0.166912 -0.392455 0.210281 -0.016609 0.145169 
乳腺癌 0.487950 -0.227613 0.790418 0.763575 0.806792 -0.311023 0.114963 -0.129397 -0.304843 0.469462 0.215542 0.295197 0.290578 0.123330 -0.462810 0.334421 -0.381167 0.161844 0.029631 0.177286 -0.054911 -0.055846 0.758702 -0.095482 -0.688057 0.025609 0.350015 -0.006680 -0.046223 -0.425886 0.145518 -0.309342 0.257807 -0.355023 -0.205205 -0.002087 0.153204 0.383726 0.336940 0.061196 -0.279521 -0.160975 0.222483 -0.062943 0.615088 0.453526 -0.491254 0.527231 0.304993 0.219663 
启动子 -0.084808 0.237910 0.243740 0.407368 -0.226907 -0.242692 0.174786 0.012537 0.866263 -0.056397 -0.385741 -0.057003 -0.218211 -0.015994 -0.288297 0.404879 0.183481 -0.030026 0.085586 -0.241055 -0.394376 0.242701 -0.262655 0.121541 -0.205211 0.171214 -0.225820 0.249757 0.607352 -0.312132 -0.253404 -0.785008 0.390028 -0.504329 0.070113 -0.029492 0.002873 0.126613 0.035526 0.011427 0.181914 -0.563963 -0.073690 0.094028 0.011288 -0.632015 -0.019074 0.106826 -0.098225 0.054186 
C 0.819314 0.627852 0.639040 -0.014905 -0.049708 -0.850835 0.087809 0.594640 0.896926 -0.524247 -0.061958 0.522517 -0.780135 -0.032158 -0.103079 0.547929 0.155413 0.416455 -0.497529 -0.119435 -0.161361 -0.069072 -0.005395 -0.249460 0.386815 -0.210407 0.083507 -0.567114 -0.098667 -0.960212 -0.607395 -0.433617 0.379362 0.604527 0.273585 0.082532 0.270123 -0.084358 0.357003 0.039304 0.253182 0.347969 -0.020822 0.250197 0.322089 -0.526338 -0.404769 -0.167109 0.083068 0.364629 
该 -0.276559 -0.089172 -0.669653 0.060879 0.669538 0.085222 0.199281 -0.071459 -0.126034 -0.522713 0.195978 0.613489 -0.120438 -0.106604 -0.078298 -0.173063 0.081403 -0.053202 0.125453 -0.038151 0.137149 0.473747 0.013954 0.178836 0.133588 -0.317344 -0.532289 0.159043 -0.272466 -0.036295 0.553164 0.184571 -0.049045 -0.111116 0.210058 -0.222328 -0.242493 0.166229 0.753252 -0.051202 0.083597 0.187949 0.393669 0.174608 -0.155991 0.213395 0.056744 -0.355780 0.381328 0.151713 
变体 -0.512594 -0.251258 -0.127660 0.082433 -0.094087 -0.246298 -0.033614 -0.322012 0.079064 -0.427400 0.417528 -0.298850 -0.193518 -0.316638 0.319842 0.005810 0.028092 0.245675 0.127400 0.242162 -0.129222 0.289543 -0.399760 -0.329616 0.580322 -0.022280 0.131131 -0.051857 0.358324 -0.158107 -0.047234 0.097035 0.023403 0.319633 -0.040709 0.167398 0.254714 -0.365479 0.224359 0.059281 -0.043713 -0.267420 -0.510407 0.006727 0.352271 -0.098322 0.046441 0.189463 0.048945 0.407213 
疾病 -0.470273 0.031865 -0.223563 0.231799 0.107659 0.049692 0.117919 0.163344 -0.202417 -0.171598 0.008622 0.570008 0.187712 0.021651 0.023093 -0.045013 0.488822 -0.208932 0.026148 0.371859 0.250414 0.572890 -0.381371 0.054304 0.000488 0.121770 0.171688 -0.093060 0.325887 0.366319 0.401139 -0.407118 -0.052363 -0.298353 0.033776 -0.366962 0.008183 0.227737 0.345909 -0.278724 0.204625 0.003337 0.058681 0.244340 0.195522 0.256150 -0.088571 -0.356343 -0.046289 0.492905 
证据 -0.279380 -0.523587 -0.087851 -0.594564 -0.002207 0.240111 0.415966 -0.107861 -0.089951 -0.549950 -0.125847 0.562567 0.516795 -0.289311 0.153613 0.535922 -0.083114 -0.354191 -0.018652 0.160562 0.656968 -0.073778 -0.128503 -0.260466 -0.095584 0.148153 -0.663592 0.186211 -0.427675 -0.118228 0.005835 0.076036 -0.141871 -0.404747 0.335139 0.699921 -0.545541 -0.326066 0.465669 -0.315612 0.150983 0.167378 0.872639 0.374065 0.009171 0.442582 0.126826 -0.086026 0.180898 0.470231 
可以 0.052526 -0.783156 -0.530643 -0.074055 0.064524 0.136951 0.294983 0.144347 0.281656 -0.534797 0.221904 -0.135875 0.051947 -0.088450 0.159367 0.102618 0.268462 0.027853 0.056778 0.234379 -0.145103 0.871521 -0.230102 -0.425343 0.336084 0.453517 0.379341 0.343380 0.538500 -0.359894 0.136036 0.179905 0.381358 -0.394558 -0.350004 0.429507 0.244156 -0.649755 0.317581 0.306109 -0.065753 -0.292433 -0.457835 -0.233523 0.679305 -0.047661 0.390356 0.383299 -0.328024 0.169717 
发病 0.158441 -0.310916 -0.131540 0.036441 -0.333964 0.056767 -0.046091 0.317292 0.066597 0.413865 -0.266402 0.557963 0.108873 -0.565582 0.231406 0.463821 -0.431910 -0.364942 0.303267 0.525619 0.240492 0.116411 -1.020644 0.231247 0.067956 -0.141185 -0.205330 -0.099842 -0.380145 0.218791 0.144587 -0.254013 -0.293858 -0.569061 -0.631700 -0.451772 -0.066854 0.131405 0.772079 -0.527217 0.176886 0.520555 -0.193532 0.017352 -0.021243 0.539982 -0.319508 -0.078424 -0.323965 0.215542 
T 1.026200 0.443863 0.536972 0.102272 -0.110774 -0.792407 0.153912 0.200440 0.608468 -0.506375 -0.168204 0.190954 -0.364807 -0.153272 -0.242884 0.641902 -0.178926 -0.020756 -0.487085 -0.280497 -0.185377 -0.076896 0.184280 -0.454911 0.628844 0.017841 -0.129567 -0.509516 -0.044158 -0.518583 -0.718935 -0.547451 0.264615 0.460908 0.454074 -0.125329 0.408928 0.213536 0.340322 0.136091 0.204181 0.507259 -0.203579 0.074066 0.543790 -0.040486 0.055161 0.075076 -0.181988 0.050916 
显著 0.068760 -0.460881 -0.387029 -0.498544 0.190250 0.312582 0.396789 0.107466 -0.162552 -0.756308 0.686620 -0.167647 -0.227490 -0.307146 0.450686 0.001742 0.075139 -0.167580 0.123193 0.708325 -0.327509 0.310217 -0.421110 -0.696348 0.471828 -0.042070 0.066888 0.192669 1.000779 -0.396147 0.447000 0.101614 0.078399 -0.174451 0.157779 0.191214 -0.033223 -0.069174 0.281438 0.023647 0.092865 -0.748645 -0.124096 -0.366202 0.442800 0.118667 0.538248 -0.369690 0.427344 0.224209 
无关 0.073569 0.109569 0.150696 0.919300 -0.107121 -0.340613 -0.048928 -0.444472 -0.293877 0.233028 -0.026606 0.048064 -0.309112 -0.125090 -0.058502 -0.064338 0.242351 -0.314825 -0.059776 0.269897 -0.222984 0.116831 -0.552390 -0.140866 0.071641 -0.108728 -0.136267 0.126435 -0.307676 -0.622186 -0.187045 -0.732304 -0.177903 0.328511 -0.024484 -0.288243 0.353917 0.150638 0.045230 -0.606158 0.359598 -0.181448 -0.210302 0.247220 0.286934 -0.331632 0.125313 0.036701 -0.210139 0.183427 
哮喘 -0.125787 0.089722 -0.092675 0.011684 0.208034 -0.007518 0.134977 0.185343 -0.572048 -0.210211 0.056108 0.763931 0.500166 -0.121715 -0.314548 0.222410 -0.172191 -0.094513 0.274256 0.284770 0.190268 -0.278129 -0.239187 0.280996 0.011730 -0.121736 0.041015 -0.268424 -0.224163 0.153450 0.440397 -0.287310 0.082254 -0.260838 0.021694 -0.610915 0.014200 0.540687 0.595486 -0.559094 0.055263 0.014778 -0.300565 0.111730 0.075686 -0.147035 -0.302150 -0.001812 -0.330401 0.265988 
总之 0.084891 -0.171527 -0.136360 -0.319912 -0.000447 0.038370 0.411055 -0.018867 0.018051 -0.416531 -0.215987 0.073641 -0.377255 0.099246 0.202413 0.693107 -0.120045 -0.288314 -0.130603 -0.356378 -0.282405 -0.028861 -0.062386 -0.099244 0.071033 -0.185895 0.185186 -0.301220 0.176697 -0.173200 -0.068884 -0.049066 0.100239 -0.179915 -0.015749 0.260452 -0.105969 -0.186096 0.114298 0.019346 -0.182147 -0.656087 0.070218 0.076427 -0.111301 -1.356254 -0.012630 -0.439917 0.098188 0.236330 
独立 0.143257 0.116072 0.073248 -0.288615 0.270396 -0.693618 0.324123 0.291832 0.122319 -0.431859 0.296854 0.275611 -0.265031 -0.292881 -0.515741 -0.072996 -0.100551 -0.091680 -0.118377 0.459503 0.196592 0.072467 0.282591 -0.111320 -0.146391 0.327848 0.143226 -0.273676 -0.412821 -0.135223 0.487978 -0.292471 0.840915 -0.435330 -0.318719 -0.340166 -0.103150 0.260084 0.274349 -0.148091 0.321444 -0.386608 -0.474833 0.167590 0.570146 -0.103851 0.104012 -0.095335 -0.222542 0.019449 
支持 -0.152934 0.222680 -0.015330 -0.540070 0.258402 -0.263970 0.571371 -0.362828 0.443133 0.083057 -0.206163 0.634577 0.127666 0.311016 0.165206 0.255102 0.290016 0.269520 -0.091814 0.478988 0.323500 0.082206 0.380730 0.236436 -0.106480 0.229473 -0.359476 -0.028773 -0.237493 0.017294 0.217985 0.004535 -0.247916 -0.538782 -0.363288 0.402621 -0.099714 -0.268672 -0.475213 0.100746 0.329777 0.057990 -0.012531 0.342300 0.728777 -0.073074 -0.599250 0.154716 0.347086 0.067900 
不是 0.006899 0.233465 -0.192042 0.753460 -0.176841 -0.360185 0.201202 -0.355948 0.362779 0.205361 -0.218053 0.091788 -0.218222 -0.325337 -0.638159 0.432939 0.004918 -0.031987 -0.195858 0.027147 -0.263006 0.385586 0.193613 -0.544833 -0.339532 -0.020751 0.060311 0.377386 0.067642 0.100663 0.104645 -0.424905 0.255304 0.161947 0.002085 -0.410875 -0.234765 0.113826 0.141194 -0.289858 0.092823 -0.233416 -0.379303 -0.002959 0.063856 -0.434987 -0.236628 0.111687 -0.055214 -0.029857 
但 -0.368204 -0.243308 0.396420 0.012825 0.447386 -0.195548 0.182661 0.017187 -0.013514 0.020382 -0.274787 0.636875 -0.111314 0.049956 -0.074225 -0.004571 -0.061741 -0.392738 0.051467 0.265683 0.053660 0.489196 -0.060024 -0.389007 -0.334093 0.259080 0.346409 0.246675 -0.332034 -0.253065 0.565014 0.440629 -0.138940 0.089383 -0.173526 -0.136398 0.402371 0.167602 -0.298369 -0.188700 0.206800 0.058152 -0.079296 0.431062 0.368929 0.006306 -0.213222 0.197981 0.123737 0.477720 
重要 0.377657 0.117944 0.064632 -0.168103 0.105486 -0.259722 0.099974 -0.043686 -0.024020 0.085380 0.354686 0.660009 -0.183993 0.203913 -0.151324 0.247355 0.280724 -0.433743 0.495805 0.130406 0.288021 0.693911 -0.255404 -0.064414 -0.083112 0.379144 -0.249578 0.537440 0.144765 -0.306882 0.180261 0.043845 -0.188213 0.013387 -0.544511 -0.243882 0.212997 -0.347685 0.410942 -0.502912 -0.289290 0.090310 -0.238598 0.119575 -0.515761 0.212329 -0.457458 -0.227502 -0.512781 -0.211403 
机制 -0.061221 -0.329328 -0.382030 0.177975 -0.388797 -0.377968 -0.311676 -0.101193 -0.091108 0.268720 0.271248 0.797934 0.418213 -0.709562 0.205926 0.366271 0.034199 -0.502792 -0.105171 -0.233788 0.515539 -0.084858 -0.987734 0.530266 0.559808 -0.302577 -0.287121 0.352084 0.312014 -0.091421 0.157481 -0.077767 -0.191340 -0.590743 -0.483971 -0.514848 0.040989 -0.049998 0.703407 -0.819864 0.015061 0.663224 -0.321547 -0.181822 0.208764 0.543504 -0.338537 -0.330819 -0.528061 0.287484 
并 -0.166007 -0.297159 -0.049966 -0.218046 -0.122775 -0.437821 0.718781 -0.306405 0.375160 -0.803932 0.098948 0.517962 0.338050 0.040405 -0.109707 0.086702 0.235751 -0.195389 0.671197 0.066608 0.328650 0.771519 0.058843 0.157275 0.351350 0.461751 -0.325101 0.266750 -0.282042 0.111103 0.389377 0.498656 -0.207695 0.182687 0.261983 0.439054 -0.168342 -0.550852 0.000889 0.135793 -0.059213 -0.080663 0.361658 0.318555 0.098212 -0.059144 -0.508870 0.295266 0.179361 0.010354 
型 -0.051103 -0.369634 -0.850698 -0.544044 -0.258509 -0.233309 -0.292540 0.415321 0.342927 -0.815978 0.404566 -0.471219 -0.819662 -0.271962 -0.167082 0.109287 0.353676 -0.378861 0.372091 0.174537 0.185355 0.585957 0.407557 -0.344707 0.501086 0.154239 0.066999 0.536982 0.244443 -0.565250 0.104781 0.527738 0.175754 -0.030563 -0.106684 0.011285 0.728797 -0.353113 0.572099 -0.348291 -0.394251 -0.378522 -0.417405 -0.607491 0.571186 -0.208633 0.181055 -0.208939 0.082024 -0.071197 
2型糖尿病 0.064289 0.287713 -0.150824 0.531954 -0.820008 -0.722053 -0.104691 -0.343509 -0.061041 -0.542197 -0.001092 0.097816 -0.245134 0.270581 -0.236690 -0.003214 0.530459 -0.299125 0.262649 0.609686 -0.313166 0.207273 -0.396873 -0.125161 -0.284932 -0.136521 -0.017789 0.439707 0.062634 -0.543935 -0.364553 -0.228128 -0.120067 0.285138 -0.454717 -0.601800 0.330666 0.241658 0.240813 -0.363380 -0.030198 -0.186952 0.086017 -0.040949 0.047540 -0.181533 0.402349 0.159760 0.146700 0.168838 
A 0.431651 0.340485 0.520991 -0.066076 0.005627 -0.332351 -0.011164 0.695182 0.558171 0.086946 -0.728775 0.263125 -0.352127 -0.603168 0.096282 0.289994 0.187427 0.013626 -0.339310 -0.227357 0.294226 -0.098238 0.448613 -0.173759 0.072979 -0.052543 -0.178454 -0.299689 -0.317500 -0.779466 -0.516621 -0.747386 0.964225 -0.220314 0.226763 0.265629 0.156495 -0.116837 0.639818 -0.301252 0.213847 -0.049072 -0.011943 -0.022478 0.179432 -0.851772 0.013075 -0.579638 -0.391797 0.237903 
心肌梗死 0.475206 -0.843927 -0.389103 -0.074624 -0.183148 -0.191984 0.249307 -0.096734 0.161840 -0.052775 0.478247 0.355280 -0.339284 -0.975506 -0.064839 -0.426787 -0.529541 -0.230944 0.152115 0.488994 0.156534 0.684429 -0.558261 -0.231157 0.091065 -0.201298 -0.012028 0.375137 -0.336464 -0.189136 -0.341683 -0.557618 0.070313 -0.769610 -0.329765 -0.429665 0.434198 0.416725 0.353667 -0.372798 0.100880 -0.180325 -0.357050 -0.088082 -0.002878 0.215234 0.459446 0.217874 -0.391798 0.336224 
导致 0.457171 0.352722 0.559568 0.589044 0.376068 -0.400929 0.138057 -0.073142 0.152039 -0.114541 0.648348 0.041347 -0.043014 -0.543100 0.282109 -0.301184 0.411243 0.251990 0.062230 0.524622 -0.243755 -0.068230 -0.129012 -0.595044 -0.138817 0.125480 0.198753 0.226756 0.080450 -0.186691 0.548534 -0.304851 0.216905 -0.189802 -0.209583 -0.316980 0.217233 -0.623981 0.170287 -0.168452 0.142080 0.180857 0.172657 -0.330072 -0.058569 -0.508186 -0.177354 0.183902 0.234228 -0.025111 
因此 0.070821 -0.591814 -0.405657 -0.208432 -0.284346 0.007366 0.610972 -0.275387 0.393431 -0.518654 0.207307 -0.390747 0.087395 -0.079647 0.240255 0.281256 0.163372 0.856192 -0.128436 0.162595 0.246979 0.522196 -0.185512 -0.367786 0.492025 0.225465 -0.067335 0.407820 0.184097 -0.097775 0.130723 0.215460 -0.295138 -0.435820 -0.429964 0.160654 -0.063610 -0.610823 0.266922 0.207105 0.092536 -0.342892 -0.307923 0.244017 0.811901 -0.305294 0.275831 0.077045 -0.131299 0.084922 
提供 -0.249418 -0.204765 -0.220388 -0.644916 0.153301 -0.025614 0.614392 0.380678 0.403638 -0.122195 0.159322 0.420156 0.104078 0.305912 -0.050494 0.498667 0.149656 0.162613 -0.034874 1.042153 0.982105 0.627878 0.285427 0.237730 -0.083041 -0.055585 -0.286457 0.246575 -0.779800 0.584882 0.213110 0.386981 -0.398121 -0.433232 0.283626 0.035455 0.069762 -0.303544 0.086193 -0.517440 0.332014 0.060372 0.447350 0.808711 0.423096 0.465604 0.108991 -0.286919 0.052210 -0.201828 
CTLA -0.372255 0.040910 0.381588 -0.148805 -0.300035 -0.056716 0.432272 0.227137 -0.408262 -0.294508 -0.377313 -0.243315 -0.253316 0.321857 0.400374 1.003910 0.171356 -0.414072 -0.083090 -0.715931 -0.835216 -0.053965 -0.215221 -0.159304 0.560929 0.025703 0.103211 0.620502 -0.127435 0.241378 0.645273 -0.032950 0.880465 -0.217901 0.336557 -0.572611 0.181525 0.530650 -0.413733 0.387485 -0.012005 0.332297 -0.295455 0.447120 -0.139153 -0.026973 -0.399301 -0.137723 0.135851 0.259931 
ACE 0.496422 -0.239282 -0.121188 -0.161747 0.473980 -0.413849 0.224075 -0.151476 0.148405 -0.622085 0.165772 0.487780 -0.565718 -0.122476 0.179740 0.448810 -0.363548 0.162176 -0.305858 0.543050 0.136289 0.029029 0.213998 -0.489607 -0.263226 -0.037692 0.057536 -0.371478 -0.329729 0.388553 -0.165613 0.362557 0.449397 0.203169 0.022715 -0.558787 -0.022547 -0.050653 0.175351 0.150390 0.579962 0.412685 -0.432572 0.218824 -0.226860 -0.069571 0.177659 -0.185340 -0.210740 -0.058668 
患 0.430249 0.383681 0.174904 0.884040 0.648713 -0.736374 -0.074819 -0.100134 0.067973 -0.037657 0.016679 0.627905 -0.331362 0.022324 -0.343486 0.076682 0.137755 -0.251992 -0.294928 -0.012631 -0.060101 0.653209 -0.006685 -0.097451 -0.453859 0.146860 0.363207 0.357921 -0.058618 -0.131509 -0.095179 -0.515750 -0.005306 -0.155187 -0.139170 -0.229595 0.422444 0.439586 0.079815 -0.067498 -0.354537 0.110648 -0.182515 0.580984 0.066608 -0.393745 0.191849 0.376362 0.393166 0.200289 
进一步 -0.028144 -0.160785 -0.367466 -0.374846 -0.095868 -0.427388 -0.014608 -0.067791 0.042001 -0.468581 -0.243030 0.224106 -0.075208 0.216874 0.123059 0.143527 0.372012 -0.279880 -0.020689 0.183438 0.538547 0.609582 -0.263572 0.041015 -0.090492 -0.319149 -0.354852 0.100190 -0.123355 -0.443564 0.291643 -0.095425 -0.024732 0.511454 -0.600627 0.046883 0.317504 -0.368035 0.458113 -0.435250 0.386709 0.449223 0.322901 -0.137806 0.061733 -0.284053 -0.267636 0.357275 0.086520 -0.225554 
水平 -0.329786 0.134154 -0.110689 0.518142 0.228909 0.598416 1.028284 0.062611 0.287112 0.293919 0.080680 0.112461 -0.538808 -0.344250 -1.000831 0.241245 0.086615 -0.338498 -0.173177 -0.614668 -0.525494 0.627330 0.173467 -0.119725 -0.008283 -0.459926 0.196019 -0.343872 0.956835 -0.284397 0.085759 -0.373591 -0.018439 0.530696 0.447227 0.212640 -0.657752 -0.634015 0.896682 -0.239865 -0.038126 -0.479733 0.065837 -0.191543 -0.234371 -0.287118 -0.433337 -0.517035 -0.229125 0.037409 
APOE -0.230452 -0.035522 0.562294 0.578043 0.491903 -0.462063 -0.247936 -0.211198 0.375172 -0.185530 0.580351 0.388589 -0.177304 -0.004324 0.561631 0.226732 -0.417422 -0.360289 -0.175439 0.177601 -0.451162 0.196740 0.389404 -0.191612 -0.341429 -0.019723 0.427940 0.250783 -0.014297 -0.112250 0.139883 0.572658 0.426427 -0.543888 -0.392078 -0.459352 -0.044479 -0.456716 -0.288613 0.065980 0.827794 -0.305147 -0.530967 0.311966 0.114473 -0.376467 -0.037374 -0.232357 -0.115423 -0.206924 
会 0.043439 -0.698752 0.110758 0.679736 0.470824 0.161826 -0.440701 -0.004554 0.320395 0.260376 0.260652 0.404178 0.432401 -0.883594 0.170193 -0.110053 -0.319130 -0.168236 0.203755 -0.061851 -0.534589 0.657733 -0.199845 -0.613145 -0.159329 -0.003812 -0.046106 0.412251 -0.522001 -0.327381 0.177563 -0.226154 -0.018063 -0.420691 0.244680 -0.272370 0.265101 -0.044790 0.007242 -0.470153 0.491460 0.267210 -0.083636 0.023636 0.184536 -0.177893 0.254632 -0.041290 0.005276 0.010829 
这项 -0.196807 0.084940 -0.122882 -0.257166 -0.180596 0.291580 0.872782 -0.000142 0.732004 -0.434526 -0.348901 0.122604 -0.499828 0.108810 -0.464607 0.123368 -0.280924 -0.242233 -0.623850 -0.209124 0.069891 0.396830 0.057486 -0.083058 0.197848 -0.139569 -0.387423 0.272184 -0.175737 0.429361 0.149124 -0.073524 0.084097 -0.143331 -0.220822 -0.193504 -0.337373 -0.225389 0.438116 -0.250792 -0.125313 -0.189237 -0.179936 0.409545 -0.260290 -0.767369 0.116762 0.045730 0.202572 -0.157476 
单倍 -0.093417 0.050892 -1.083380 -0.628989 -0.501778 -0.009762 -0.151305 0.874731 0.405396 -0.737135 0.146808 -0.465190 -0.535335 -0.114571 -0.077138 0.015524 0.324424 -0.093674 0.611211 0.266829 0.452661 0.539301 0.226863 -0.593382 0.109184 0.405590 0.309241 0.477696 0.492296 -0.063913 0.367195 0.686683 0.127026 -0.083713 0.159777 0.013651 0.849827 -0.655561 0.557936 0.197292 -0.201412 -0.260095 -0.359839 -0.448863 0.784962 -0.003721 0.454538 -0.253039 -0.146960 -0.265885 
而 0.051475 -0.297319 0.117784 0.485983 0.183261 -0.351818 0.336835 -0.091098 -0.046789 -0.175134 -0.341797 0.021081 -0.084698 0.025139 -0.609641 0.897238 -0.475126 -0.543716 0.363845 -0.305875 -0.176409 0.244575 -0.053816 -0.773171 0.425935 -0.514769 0.082327 -0.259864 0.300610 -0.674150 -0.211064 -0.257414 0.759682 -0.324746 0.286400 -0.052447 -0.452097 -0.208209 0.747155 -0.414600 0.062312 0.378282 0.106574 0.182968 -0.018314 0.452379 -0.607855 -0.052124 -0.348559 0.466180 
促进作用 -0.330080 0.107152 0.093175 0.707435 0.077409 -0.442767 -0.130188 0.330294 -0.567239 -0.306694 0.448868 -0.033028 0.170390 0.313376 -0.142431 0.131902 -0.184734 -0.377918 0.103914 0.486138 0.025230 -0.178810 -0.845278 0.011326 0.229455 -0.303386 0.054328 0.162405 -0.013451 0.012360 0.277809 -0.027545 -0.388258 -0.695451 -0.139509 -0.431389 -0.092132 -0.127772 0.282421 -1.015770 -0.164620 0.061204 0.534241 0.711000 -0.246579 -0.004227 -0.673138 0.020683 -0.434129 0.609736 
外显子 0.001896 0.258072 -0.169656 -0.364173 -0.951399 -0.469500 0.399750 -0.082205 0.206687 -0.314581 -0.364262 -0.094162 -0.160190 0.419239 0.240700 0.282893 0.121418 -0.118930 -0.343372 -0.894190 -0.789843 0.018497 0.378061 -0.071139 -0.068469 -0.012577 -0.222956 0.528794 -0.273434 0.339554 0.473943 -0.095462 0.699849 0.481594 0.185697 -0.422614 -0.208184 0.138087 -0.056748 0.233898 -0.091961 -0.256654 -0.202751 -0.063210 0.182591 -0.376461 -0.145687 -0.446368 0.163136 0.124420 
具有 0.030342 0.309102 0.049840 -0.068238 0.047563 -0.184167 -0.160997 -0.133954 -0.072695 -0.472692 0.064735 0.335687 0.053378 0.193536 0.330550 0.248721 -0.194321 0.155836 0.205067 -0.034355 0.054684 0.301683 -0.026763 -0.350533 0.068865 -0.286023 0.001391 -0.024529 0.633441 -0.238257 -0.334898 -0.210247 0.006162 -0.067032 -0.069513 -0.055551 0.002278 0.101250 0.616282 0.075381 -0.145055 0.478776 -0.081439 0.376598 -0.083120 0.029583 -0.189624 -0.163590 -0.251871 0.168757 
G 0.132628 0.191996 0.314849 -0.228201 -0.283136 -0.124521 0.341509 0.751936 0.368609 -0.051004 0.215362 0.547270 -0.026888 -0.192327 0.173146 0.225893 -0.455527 -0.236224 -0.172838 -0.172772 -0.263914 -0.094506 -0.075433 -0.534563 0.181937 -0.118773 0.009252 0.277403 0.253902 0.127161 0.106772 0.096252 0.707150 0.356165 -0.147930 -0.779860 -0.214872 0.288111 0.394717 0.208129 0.134075 0.273856 -0.066317 -0.058732 0.540169 -0.922429 -0.061074 -0.283777 0.116874 0.482086 
似乎 -0.289072 0.416093 -0.088667 0.232554 -0.317530 0.132611 0.079072 -0.145671 -0.521966 0.254999 -0.178971 -0.042508 -0.176844 -0.088359 -0.050241 0.389090 0.059522 -0.108358 0.435191 0.359792 -0.415189 -0.033194 -0.031530 -0.379921 -0.195411 -0.111043 0.301961 0.353208 -0.238075 -0.376578 0.261437 -0.157914 -0.147405 -0.018547 -0.072200 -0.169074 0.389901 0.542126 0.018634 -0.071544 -0.083988 0.006022 -0.157849 0.180723 0.205794 -0.065570 0.110538 0.123574 0.172939 -0.384082 
上 -0.223233 -0.064930 0.043836 -0.152761 0.329400 0.364848 0.609767 0.145919 0.194272 0.010820 0.827961 0.005231 0.476874 -0.184833 -0.633061 0.036146 -0.171813 0.166780 -0.073407 0.322639 -0.147773 -0.491366 -0.180808 -0.922749 -0.133249 0.240169 -0.179595 0.615085 0.204541 -0.062206 0.893721 0.105777 0.564793 -0.167039 -0.325956 0.148513 0.112565 0.219202 0.626341 -0.028079 -0.218196 -0.129702 0.732602 0.047747 0.343298 -0.135790 0.175994 -0.124245 0.362796 -0.121995 
TLR4 -0.313158 -0.740302 -0.625146 -0.434307 0.058310 0.260452 -0.097955 0.020509 -0.070109 0.257703 -0.228744 0.275425 0.049899 -0.995419 0.512057 -0.119241 -0.440211 -0.247337 -0.165536 0.564762 0.431348 0.430819 -0.468153 0.189470 0.097555 -0.563264 -0.079441 0.312999 -0.426096 -0.288067 0.121911 0.089822 -0.101365 -0.972537 0.450718 -0.260539 0.142306 0.411654 0.662665 -0.380839 0.356611 -0.006133 -0.276089 0.372031 -0.130161 0.311670 0.236610 0.162110 -0.103909 0.044363 
遗传变异 0.172732 -0.749467 -0.160213 0.219589 -0.415605 -0.188790 0.045183 0.063254 0.502819 -0.423723 0.106477 -0.115431 0.405118 -0.318318 -0.182487 -0.169580 0.016374 0.110491 0.313284 0.261551 -0.047095 0.119381 -1.002082 -0.653963 -0.118423 -0.037670 -0.320041 0.119165 -0.109724 -0.410171 -0.101671 0.193643 -0.040529 -0.423878 -0.134079 -0.280984 0.420800 0.256886 0.284962 0.128703 0.319340 0.181007 -0.121650 0.472237 -0.066358 -0.222112 0.228839 0.127786 0.354332 0.273533 
这种 -0.525132 -0.365123 -0.331732 0.257407 0.494822 -0.155807 0.278452 -0.014004 0.110039 -0.176077 -0.047990 0.494883 0.170127 0.013941 0.470087 0.221914 -0.380014 -0.474685 0.151193 0.013413 -0.234292 0.004835 0.283285 0.152247 -0.206784 0.377468 -0.584913 -0.220774 0.253408 -0.522213 0.543747 0.144987 0.734873 0.124754 -0.390059 0.108762 -0.348458 -0.381344 0.084401 0.365165 -0.047867 0.013884 0.639465 -0.483991 0.202854 -0.059282 -0.191443 -0.580406 0.220032 0.109875 
中国 0.527179 0.119559 -0.657042 0.394980 -0.103211 -0.643902 0.252213 -0.078073 -0.137398 -0.444009 -0.320395 0.402019 -0.314140 -0.290869 -0.174659 0.383178 0.109078 -0.199840 0.103807 0.384542 -0.463639 -0.283638 -0.585231 -0.100377 0.013179 0.188674 -0.267393 0.169829 0.171164 0.159866 -0.011807 0.101800 0.115873 0.381983 -0.324090 -0.398421 0.839560 0.000152 -0.251242 0.097235 0.353433 -0.170302 -0.091275 0.052056 0.337650 0.210560 0.276009 -0.283027 0.534952 0.253251 
发挥 -0.515236 0.675672 -0.010613 0.430801 -0.583743 -0.832304 0.543432 0.191841 0.260941 0.177263 0.069116 0.490984 0.285171 0.244220 0.000919 -0.008160 0.561397 0.034811 0.814332 0.410140 0.625940 -0.268923 -0.299099 -0.189187 0.264352 0.598619 -0.648963 0.825615 0.354530 -0.216774 0.052649 -0.019851 -0.375398 0.063064 -0.975258 -0.691346 -0.156472 -0.252186 0.527889 -0.229397 0.288757 0.319225 0.226079 -0.232549 -0.436549 0.724696 -0.671390 0.234356 0.593345 -0.316280 
* 0.041858 -0.203628 0.173607 0.745074 0.705768 -0.348660 -0.539438 0.850609 0.673775 0.161770 -0.726177 0.527619 0.044060 -0.002929 0.428496 0.454585 -0.405483 -0.331170 0.489318 -0.219362 -0.468763 -0.084468 0.725601 -0.197761 0.281693 0.108577 -0.811364 -0.480172 0.753893 -0.465019 0.344304 0.672601 0.434701 0.277864 -0.318119 -0.236748 -0.088267 0.410153 -0.300902 0.363718 -0.150547 0.500236 -0.033671 -0.613878 0.695469 -0.503389 -0.818234 -0.568667 0.493739 0.234809 
关系 -0.519545 -0.332653 -0.418247 -0.011107 0.996100 0.659238 0.417020 -0.271708 -0.397173 -0.716409 -0.103583 0.397532 0.028477 -0.145790 -0.067975 0.040447 -0.365048 -0.118868 -0.283029 0.203539 -0.237728 0.581273 -0.277754 -0.476759 -0.190294 0.043268 0.135130 0.053405 0.365021 -0.152319 0.558151 -0.155098 0.065942 -0.231225 0.307193 -0.126739 0.120497 0.222059 0.560096 -0.113494 -0.016805 0.002509 0.486775 0.346079 0.234997 -0.020358 0.169480 -0.143365 0.381496 0.155023 
TNF 0.131365 0.570214 0.236247 -0.025133 -0.289715 -0.267224 -0.023987 0.939713 0.684749 0.204064 -0.635276 -0.229518 -0.467544 -0.813766 0.058150 0.167883 -0.380088 0.263951 -0.170224 -0.388511 -0.246699 0.257510 0.692604 -0.402093 0.109573 -0.337135 -0.331467 -0.248810 0.435600 -0.736744 -0.305391 -0.361442 0.100235 0.276031 0.512037 -0.389315 -0.156795 0.039608 0.818506 -0.530801 0.364818 -0.157001 -0.028088 -0.108441 0.169026 -0.391044 -0.280618 -0.469649 -0.069703 0.270656 
类风湿关节炎 -0.527176 0.253991 0.273575 0.052548 0.253840 -0.083366 0.040960 0.196487 -0.003052 -0.089020 0.011700 -0.237132 0.282739 -0.418403 0.347997 0.502808 -0.007307 -0.325311 -0.472034 -0.331378 -0.606554 -0.134142 -0.650516 0.105960 0.225513 -0.122116 -0.409900 0.269889 0.415410 -0.407325 0.026949 -0.242075 0.550310 -0.661242 0.535025 -0.026961 -0.103152 0.381599 0.438404 0.088200 0.240303 -0.294447 -0.051214 -0.147565 0.440030 -0.009946 -0.083222 0.004313 -0.014979 0.248482 
起到 -0.545421 -0.215976 0.036003 0.335736 0.100199 -0.258072 0.474876 -0.259572 -0.202821 -0.604782 0.226228 0.013666 0.153631 0.027672 -0.218254 0.354192 0.772711 -0.215464 0.477981 -0.243105 0.352722 0.045910 0.237079 -0.318239 -0.767382 0.223371 -0.472517 0.456590 -0.367182 -0.304837 0.181318 0.481885 0.172810 0.386289 0.307632 -0.483433 -0.691876 -0.633379 0.571263 -0.103804 0.763452 0.417082 0.602874 -0.486224 -0.350696 0.516187 -0.025534 0.199395 -0.392413 -0.198924 
2 0.599651 -0.126799 -0.196348 -0.343193 -0.295066 -0.484819 -0.133690 0.711857 0.345482 -0.050279 -0.448046 0.532228 -0.127844 -0.143474 0.254413 0.283546 -0.041099 0.211269 0.012162 0.517226 -0.398292 -0.150328 0.137162 -0.223616 -0.094582 -0.192329 0.119633 -0.006676 0.399515 -0.319295 0.245646 -0.015657 0.473083 0.274385 0.116107 -0.030938 -0.252983 -0.205379 -0.029344 0.032988 0.090693 0.072858 -0.041753 -0.339668 0.226477 -1.019300 -0.402110 -0.235089 0.018636 0.315855 
α -0.036986 0.441506 -0.127856 -0.154071 -0.028348 -0.136367 0.121368 0.627209 0.673114 0.033765 -0.727304 0.107663 -0.622412 -0.666686 0.285851 0.260236 0.107066 0.096271 -0.565564 -0.555581 -0.016717 0.069045 0.597017 -0.638099 -0.116938 -0.288979 0.288611 0.210411 0.507134 -0.242712 -0.313861 -0.223878 0.604124 0.656110 0.343800 -0.345914 -0.063036 -0.241235 0.434510 -0.440916 0.343924 -0.513711 -0.048983 0.057051 0.403177 -0.887497 -0.086761 -0.654207 0.365323 -0.103221 
改变 0.608335 -0.679349 0.151576 0.236513 0.516715 -0.421364 0.172292 -0.420325 0.249956 0.170878 0.018540 0.461660 0.375974 -0.285842 -0.189172 0.347158 0.044131 0.370796 -0.097233 0.387028 -0.223905 0.490904 0.333212 -0.131117 -0.314076 0.120115 0.223975 0.101960 0.237286 -0.154268 0.385213 -0.534936 0.020473 0.207670 -0.034343 0.295291 -0.003796 -0.048256 0.008121 0.397491 -0.104650 -0.182688 0.217644 -0.013846 0.383654 0.148187 -0.402630 0.738522 0.527688 0.440166 
以及 -0.316366 0.515666 0.455515 -0.080045 0.644526 -0.059338 0.514127 0.581604 0.468866 -0.071305 -0.195275 -0.154255 -0.282853 -0.560728 -0.620861 0.352604 0.024529 0.385480 -0.558327 -0.191401 -0.894243 -0.615277 0.442109 -0.333638 0.212298 0.236082 -0.046027 -0.288583 0.082683 -0.548621 0.168276 0.309925 0.652616 0.083373 0.576498 0.112498 0.311841 0.141976 1.045390 0.245067 0.056051 0.049347 0.034576 -0.038081 0.573086 -0.036843 -0.319172 0.326059 0.558691 0.131487 
人 -0.070370 0.621185 0.138783 0.527766 -0.573816 -0.829070 -0.276021 0.172231 -0.026835 -0.240817 -0.272488 -0.183973 -0.301504 -0.037387 0.048389 0.241436 0.010682 -0.297868 0.023075 0.434376 -0.311781 -0.023149 -0.270631 0.152654 -0.273994 0.087976 -0.477194 0.620030 0.035831 -0.397217 -0.298159 0.135717 -0.196637 -0.227955 0.202636 0.007465 -0.359849 -0.009535 0.212827 0.557046 -0.209118 0.445788 0.300899 0.407938 0.024601 -0.207564 -0.079429 0.139301 -0.307476 0.197812 
基因座 0.791967 -0.441208 -1.116709 -0.146046 -0.379367 -0.313757 -0.152743 0.023530 -0.029459 -0.530511 0.000978 0.466193 -0.006572 -0.371462 0.448922 0.444518 0.504137 -0.075314 0.338373 -0.266218 0.062055 0.432933 -0.339041 -0.129295 0.464354 0.044051 -0.168281 0.106207 0.271401 -0.332751 -0.082224 -0.036688 -0.365608 -0.273257 -0.043020 0.214425 -0.117679 -0.143609 0.257777 -0.351533 0.042633 -0.101497 -0.689851 0.118221 0.317118 -0.018933 0.038244 -0.272868 -0.107145 0.249459 
5 0.106368 0.129778 -0.382166 0.314289 -0.553305 -0.324293 0.504597 -0.002416 0.290211 -0.552700 -0.030710 -0.026864 -0.314080 -0.000267 -0.229194 -0.016813 0.228143 -0.235776 1.055763 -0.522212 -0.337478 0.143785 -0.483195 -0.543007 -0.131255 -0.107053 -0.407615 -0.036194 0.509703 -0.056161 0.142459 0.412745 0.109785 -0.127709 0.063502 0.383549 0.362119 0.290334 0.634540 0.479797 -0.340760 -0.274886 0.164576 0.029923 0.285299 -0.414082 -0.494938 -0.178959 -0.102794 0.257062 
不能 -0.039149 -0.194238 0.260825 0.153766 0.356931 -0.403824 0.116697 -0.366757 0.056947 -0.185785 0.133788 0.583842 0.083021 0.076020 0.773954 0.395494 0.151818 -0.345038 -0.055326 -0.132670 -0.102411 0.159260 -0.001032 -0.372480 0.284374 0.514304 -0.162362 0.702602 -0.166749 0.343738 0.566839 -0.133777 0.314170 -0.722547 0.591283 0.480779 0.579601 -0.149896 -0.407043 -0.028469 0.331973 -0.575895 -0.513844 0.166958 0.606565 -0.453432 -0.443290 0.072529 -0.082162 -0.203516 
变异 0.158628 0.054680 -0.185685 0.031323 0.153283 -0.330063 0.322734 0.264038 0.112634 -0.483556 -0.297093 -0.365566 0.320037 0.472096 0.001093 0.058453 -0.428599 -0.175775 0.308098 -0.134667 0.181749 0.149339 -0.006167 -0.318546 -0.894471 0.372818 -0.282896 0.086543 -0.211532 0.177358 0.293383 -0.053586 0.384493 -0.378316 -0.281829 -0.621490 -0.019695 0.153734 0.184970 -0.329046 -0.309432 -0.321317 -0.267331 -0.125305 -0.062971 -0.486390 -0.414961 0.215188 -0.368469 0.314122 
卵巢癌 -0.373545 0.222933 0.574750 0.270647 -0.254742 0.333184 0.645970 0.190648 -0.113184 1.045025 0.175432 0.578533 -0.146462 0.030621 -0.413841 -0.014158 -0.213041 0.570391 -0.340491 0.019323 0.159463 -1.535609 0.194539 -0.398463 0.370546 0.271727 0.468058 0.207856 0.279977 -0.815133 0.087261 0.388034 -0.059029 0.229626 -0.225135 -0.044222 0.275286 -0.215346 1.521809 0.047591 0.372714 -0.801358 -0.137649 -0.452265 -0.385676 0.409346 -0.424235 -0.118557 0.831437 -0.152526 
3 -0.489048 0.324298 -0.125466 0.078306 -0.536762 -0.012127 0.591356 0.426766 0.494036 -0.458852 -0.588110 0.438204 0.288670 0.146782 0.324612 0.122882 -0.452493 0.213656 0.403145 -0.001209 -0.796379 -0.302424 0.423546 -0.198928 -0.290093 0.565953 -0.826046 0.028276 0.080200 -0.170122 0.270788 0.076270 -0.054096 -0.585123 -0.436927 0.136698 -0.048616 0.197085 -0.432880 -0.282101 -0.242834 -0.263103 0.164321 -0.144074 0.490321 -0.214651 -0.643698 -0.017996 -0.142007 0.091712 
说明 -0.116028 -0.483460 -0.224549 -0.338205 0.039908 -0.149096 0.519987 0.032122 0.195882 -0.412369 0.498891 0.137865 0.292718 -0.045169 0.384463 -0.002806 -0.164010 -0.074038 0.020390 -0.362623 0.363451 0.817333 -0.146170 -0.854230 0.130614 0.497215 -0.040326 0.789140 0.089727 0.303120 0.320825 0.082424 0.032008 -0.413712 0.365166 0.220113 0.506143 -0.371398 0.024427 0.124779 0.331894 -0.430926 -0.232729 -0.589187 0.457176 -0.198676 0.201732 0.139166 -0.122302 -0.086042 
其他 -0.311699 -0.015627 -0.272997 0.252505 -0.080880 -0.124166 0.115102 -0.397104 -0.039586 -0.024407 0.058650 0.242814 0.130015 0.302502 0.105317 0.160970 -0.161160 -0.160978 0.118428 0.192105 0.076881 -0.054261 -0.458866 0.069505 -0.042684 -0.061438 -0.052292 0.042421 -0.360913 0.240781 0.376185 0.264596 -0.037629 -0.201885 -0.325339 -0.036828 0.169903 -0.071373 0.212319 -0.227644 0.064586 -0.025387 -0.300934 0.082287 0.435993 -0.300867 -0.651377 0.016509 -0.261758 -0.293159 
多发性硬化症 -0.102379 -0.123214 0.018859 0.148043 -0.407022 -0.384265 0.029825 0.119864 -0.233047 -0.118712 0.179258 0.210881 0.076335 -0.212141 0.418965 0.454727 -0.269725 -0.324446 0.368599 -0.378479 -0.404649 -0.053239 -0.636250 0.262532 0.235582 -0.002485 -0.181720 0.442177 -0.102897 -0.068930 0.043397 0.142529 -0.213387 -0.300677 -0.046598 -0.098337 -0.474538 -0.296397 0.397197 -0.233500 0.472026 -0.069248 0.069359 0.513488 -0.077668 0.087200 -0.286134 -0.015444 -0.178968 0.704107 
性 -0.247036 0.195630 0.385120 0.564313 -0.516620 -0.464238 0.531298 0.176627 -0.262288 0.398401 0.512081 0.281868 -0.068867 0.230195 -0.483837 -0.186492 0.094167 0.526773 -0.096580 0.172305 -0.021393 -0.833660 -0.559338 -0.336587 0.040325 0.135109 0.246931 0.311082 0.369521 -0.321910 -0.008258 0.178041 -0.268781 0.101567 -0.274081 -0.192047 0.289454 0.222006 1.290570 0.005943 0.294350 -0.719987 -0.073198 -0.213006 0.288423 -0.086011 -0.258783 0.089159 0.249807 0.472640 
散发性 0.461739 -0.021550 0.037970 0.340168 -0.029364 -0.243101 0.099031 -0.435010 0.014445 0.517227 0.437287 0.973522 -0.314225 0.026312 -0.515450 0.063585 -0.563048 0.337364 -0.406494 0.502544 -0.331954 -0.558643 0.131284 -0.639578 0.337065 0.010494 0.027911 0.086846 0.064761 -0.158458 0.819576 -0.054169 -0.138961 0.529191 -0.393087 -0.095232 0.457202 -0.411193 0.621739 -0.258772 0.981019 -0.540900 -0.417526 -0.158233 0.342550 0.093118 -0.189415 -0.404218 0.459578 -0.075741 
特别 -0.018079 0.041515 0.061938 0.015450 0.208222 -0.724656 -0.110210 -0.107920 -0.000659 0.099074 -0.362264 0.377803 -0.137139 -0.234626 0.403725 0.385527 0.092393 -0.625952 0.437494 -0.194671 0.047984 0.471766 -0.202083 0.368576 -0.463404 0.030754 -0.029267 0.339505 0.395168 0.103902 0.185436 -0.292610 0.036313 -0.577905 -0.494168 0.166959 0.155709 0.162125 0.138104 -0.064947 -0.050646 0.465371 -0.090654 -0.221298 0.310894 0.030347 -0.176980 -0.302658 -0.150848 0.412468 
个体 0.082809 0.118092 0.499657 0.219443 0.901578 -0.360415 -0.194147 0.097336 -0.023916 -0.196512 0.417214 0.468861 -0.170528 0.208302 0.118460 0.357856 -0.050959 0.092096 -0.214008 0.121542 0.285492 0.493326 0.235716 -0.221358 -0.655751 0.013160 -0.140811 0.420589 -0.078058 0.229687 0.061951 -0.125702 -0.173608 -0.552810 -0.052232 -0.517881 -0.192055 0.282082 0.134297 -0.258184 -0.135579 0.177428 0.246079 0.724686 0.027860 0.360841 -0.032174 0.145203 -0.217271 0.303937 
存在 -0.548696 -0.182762 -0.186446 0.529002 1.072395 -0.295263 -0.168228 0.370588 0.055395 -0.454345 -0.016479 0.148724 -0.338096 -0.377096 0.266502 0.007593 0.090096 -0.690161 0.125481 0.100260 -0.106184 0.442288 0.132943 0.205553 0.227351 0.462074 -0.316674 -0.069914 -0.017762 -0.417552 0.678066 0.424140 0.211511 -0.389479 -0.377903 -0.266670 -0.159159 0.330290 -0.005404 0.078637 0.084744 0.259698 0.243732 -0.462833 0.540413 0.250548 -0.208429 -0.367288 0.131681 0.037548 
通过 0.120508 -0.592294 0.293253 0.057239 0.034654 -0.479648 0.114155 -0.402487 0.376183 -0.715519 -0.120573 0.649754 0.306782 -0.053297 -0.154623 0.666812 0.125778 -0.392265 0.618117 -0.386324 0.064256 0.727840 -0.182741 -0.013384 0.411726 0.093069 -0.431627 -0.085900 0.432526 -0.241417 0.065964 0.112693 0.142559 -0.128608 0.173919 1.035325 -0.103112 -0.353780 0.622630 0.329825 -0.104319 -0.104510 0.021024 0.182523 -0.269188 0.023505 -0.448831 0.516251 0.251429 -0.059144 
本 -0.067658 0.009589 -0.093096 -0.001304 -0.196830 -0.019327 0.569500 -0.021000 0.410444 -0.402831 -0.397303 0.404935 0.067835 -0.307366 0.185515 0.144202 -0.010787 -0.058589 -0.430618 -0.029114 0.288309 -0.304973 -0.094144 0.018810 -0.042024 0.088012 -0.357283 0.276890 -0.391380 0.391461 -0.163933 -0.224563 0.185849 -0.047510 0.004611 -0.164321 0.195054 -0.055005 -0.020284 0.155807 0.152144 -0.131731 -0.152590 0.158564 0.044586 -0.916158 0.143002 0.338709 0.064305 0.068882 
D 0.592304 -0.117454 0.010648 -0.051237 0.234523 -0.712997 0.135575 -0.234602 0.717135 -0.342242 0.603203 0.647078 -0.542066 -0.132719 0.095132 0.122254 -0.166777 0.099354 0.277717 0.588231 -0.333192 0.253044 0.162616 -1.209989 0.406211 -0.079890 -0.290056 -0.019964 -0.619490 0.210961 0.145132 0.488826 0.385509 0.477856 -0.203560 -0.431590 0.239073 -0.454839 -0.151485 -0.596347 0.451596 -0.103066 -0.498374 0.286964 0.000123 -0.060715 0.282482 -0.311573 0.122092 0.131876 
差异 -0.526350 -0.056493 -0.813715 -0.374825 -0.122740 0.547220 0.545992 -0.076910 -0.359094 -0.313213 0.271143 -0.081145 -0.082899 -0.317666 -0.056686 0.269580 -0.049706 0.115596 0.629296 -0.022487 -0.007673 0.091022 -0.331044 -0.656765 -0.038514 0.177979 0.185066 0.266234 0.927983 -0.469011 0.454522 0.482413 -0.280403 0.799090 0.148076 -0.009631 -0.182098 -0.400787 0.655607 0.458296 0.336650 -0.634842 0.299383 0.198254 0.263182 0.278332 -0.181922 -0.142707 0.988774 0.057824 
CD14 0.025588 0.540648 -0.039667 0.064303 0.016303 -0.363941 0.690908 0.195336 0.504619 -0.445218 -0.148961 -0.024440 -0.358082 0.023477 -0.180147 0.140834 0.100113 0.091475 -0.492338 0.287460 0.102815 0.109710 -0.618674 -0.101229 0.676660 0.102787 -0.158236 -0.342548 0.336734 -0.234024 0.036254 -0.382506 0.127218 0.415268 0.248086 -0.287598 0.094688 0.150202 0.173922 0.227047 0.425599 0.041242 -0.666242 0.117125 0.334787 -0.383046 -0.198949 0.513573 0.257882 0.124757 
家族 -0.089359 0.180842 0.299988 0.410869 -0.457916 -0.317623 0.310151 0.114271 -0.243541 0.211606 0.048379 0.152182 0.310527 0.042340 0.375391 -0.291096 -0.061495 0.331490 -0.501553 -0.248060 -0.211181 -0.617570 -0.003384 -0.258949 0.229819 0.245993 -0.074348 0.265809 0.249903 -0.058588 0.058169 0.320569 -0.276306 -0.140608 0.248305 0.028899 -0.067942 -0.083065 1.474928 0.109488 0.064014 -0.705809 0.000057 -0.216593 0.088048 0.053859 -0.347190 0.041925 0.471603 0.228603 
程度 -0.347892 -0.453455 -0.207167 0.046539 0.741076 0.201772 0.645057 -0.304009 -0.241604 0.336055 -0.087711 -0.008264 0.059900 0.113444 -0.176240 0.506695 -0.248581 -0.149005 -0.313123 0.611206 0.280817 0.060870 -0.698631 -0.219520 -0.155163 0.302026 0.440216 0.262916 0.318667 0.076315 0.223613 -0.079185 0.726515 -0.275319 -0.240966 0.331520 0.326890 0.274135 0.319549 -0.019458 -0.194612 0.193219 -0.396868 -0.273891 0.316708 0.021479 -0.130851 0.234069 -0.163154 0.163100 
分析 -0.025996 -0.155780 -0.813820 -0.628666 -0.401208 -0.323674 -0.142487 0.034478 -0.140284 -0.772599 -0.100634 0.065647 -0.562538 0.083203 0.658256 0.232571 0.427120 -0.065212 0.361579 -0.006585 0.707014 0.429948 0.206666 -0.222113 0.331465 -0.069872 0.076632 0.698531 0.065656 -0.069482 -0.015963 0.482106 -0.358933 -0.946727 0.432492 0.012041 0.202020 -0.211385 0.061769 0.441879 0.231166 0.240872 -0.192952 0.261528 -0.076490 0.038015 -0.079191 -0.085045 0.458829 -0.685682 
因子 0.249714 0.004489 0.004698 -0.094751 0.165300 -0.010529 -0.050396 0.338483 0.204721 0.019442 -0.126195 0.619324 -0.781080 -0.750636 -0.115953 0.333439 0.424455 -0.152653 0.004800 -0.305873 0.094541 0.411135 0.720052 -0.286049 -0.327100 0.049754 0.478452 -0.034964 0.190502 -0.665661 -0.236678 -0.732886 0.853182 -0.042233 -0.125689 0.184068 -0.061260 0.007445 0.606153 -0.555281 0.059103 -0.703985 -0.249508 -0.185669 0.190789 -0.146584 0.221973 -0.544438 0.044180 -0.120145 
对照 -0.664828 0.601466 -0.472448 -0.659646 0.030731 0.510793 0.244237 -0.206237 -0.403049 -0.561503 0.191236 -0.136134 -0.793769 -0.357047 0.826042 0.052498 -0.525503 0.246809 -0.953670 -0.092580 -0.350267 -0.345837 0.058457 -0.015762 -0.870694 0.310077 0.484793 0.400806 0.345361 -0.119989 0.307343 0.371726 -0.144125 -0.162013 -0.324405 -0.309678 0.224364 -0.454352 0.330287 0.005270 -0.141038 -0.899643 -0.008210 0.110762 -0.206788 -0.722480 -0.231963 0.516130 -0.038552 -0.210947 
艾滋病 -0.024249 -0.928043 -0.661797 -0.528896 -0.340149 -0.256608 -0.004369 0.273800 0.375065 -0.351980 0.555396 -0.613480 0.600202 -0.235812 0.919502 0.454385 0.215346 0.171678 0.076361 -0.043424 0.111776 1.723266 0.158548 -0.484033 0.096701 0.253808 0.114304 -0.014933 1.104704 -0.318564 0.014600 -0.205564 -0.113338 -0.119429 0.318164 0.328973 -0.131421 -0.531222 0.491087 -0.010224 -0.144260 -0.310602 -0.877192 -0.264403 0.848496 0.447003 0.129671 0.176916 0.030015 0.114066 
A2M 0.186165 -0.373489 -0.031244 0.200728 0.374463 -0.382849 0.159680 -0.301583 0.557720 -0.163223 0.454730 0.495711 -0.243373 -0.138498 0.238095 -0.068757 -0.371932 0.154708 -0.126725 0.416612 -0.187952 -0.015257 0.258432 -0.789412 0.210600 -0.162666 0.056360 0.079296 -0.170617 0.404308 0.531271 0.456265 0.018543 0.016511 0.139975 -0.323694 0.328406 -0.641496 -0.062909 -0.412645 0.543217 -0.790294 -0.418817 -0.158319 -0.096831 -0.254818 0.028470 -0.138959 0.222411 -0.139411 
一个 0.658635 0.065291 -0.075548 0.052525 -0.057114 -0.994292 -0.022293 -0.001683 0.335715 -0.018765 0.038711 0.467917 -0.386007 0.267837 -0.421813 0.512633 -0.311843 -0.315597 0.003501 0.502449 0.180342 0.549492 -0.120255 -0.222808 0.076613 -0.326718 0.020763 0.176924 -0.197068 0.168465 0.191433 0.217472 0.028397 -0.561417 -0.768431 -0.132989 0.341742 -0.229262 0.128686 -0.480365 0.003376 -0.435925 -0.590717 0.041618 -0.030746 0.010343 -0.072614 -0.540957 -0.498889 0.117421 
尽管 0.220216 0.134417 0.071024 0.024309 -0.220266 0.079608 -0.200668 -0.118714 -0.274555 0.071905 -0.126205 0.187866 -0.046590 -0.192837 0.099375 0.542126 0.132976 0.111982 -0.414381 -0.044590 0.312956 0.123738 -0.019058 -0.534087 -0.641500 0.484781 -0.545642 -0.156741 -0.850711 -0.439066 0.002985 -0.195895 -0.126805 0.154906 -0.094884 0.028773 0.407634 -0.205664 -0.120516 -0.401782 0.255514 -0.196050 0.032618 0.478809 0.474344 0.022509 -0.095764 0.438086 -0.159501 -0.178802 
为 0.024028 0.227754 0.168074 -0.513726 -0.319775 -0.219772 0.718784 -0.070534 0.037127 -0.593437 -0.061552 0.366907 0.039790 0.502552 -0.301964 0.228213 0.103025 0.005476 0.224604 0.732434 0.824152 0.513365 0.212571 -0.112160 0.470351 0.251862 -0.274894 0.198248 -0.399568 0.489853 0.346236 0.555311 -0.719352 -0.446732 -0.287019 0.007375 -0.285301 -0.658534 -0.088117 0.176902 0.139725 0.067756 0.240116 0.358050 0.768591 0.163035 0.212008 -0.008425 0.177993 -0.471404 
治疗 -0.439342 0.258087 -0.126626 -0.346874 0.823222 -0.344786 0.206447 0.017664 -0.178802 -0.257470 0.501170 0.061708 0.097083 -0.006241 -0.392449 0.253754 0.171018 0.028085 0.022787 0.338835 0.112709 0.261047 -0.089722 -0.131637 -0.214189 0.061451 -0.320759 -0.769238 0.166799 0.303100 0.633301 -0.270656 0.306641 -0.022379 -0.178243 0.070961 -0.174719 0.241970 0.573098 -0.590366 0.033161 0.105155 -0.595559 0.106591 0.160141 0.356491 -0.268059 -0.257384 0.098908 0.161206 
由 -0.304815 -0.058363 0.116751 0.368809 0.406596 -0.372241 -0.272839 -0.358634 -0.022325 -0.153187 0.442355 0.632618 0.407519 -0.075405 -0.413700 0.190414 0.274745 -0.033209 0.356547 0.105065 -0.167203 0.267621 -0.323082 -0.083168 -0.232959 -0.272714 0.213348 0.023000 0.356947 0.254665 0.035920 -0.176029 0.624944 -0.113736 -0.202185 0.218079 0.131499 0.292898 0.709379 0.141895 -0.011520 0.069985 -0.121044 -0.034042 0.508521 -0.300573 0.022027 -0.106182 -0.117706 -0.051311 
区域 -0.504499 0.514931 -0.170691 0.159252 -0.804217 -0.042891 0.487488 0.066515 -0.045112 0.275868 0.090049 0.009043 0.444283 0.295908 0.387359 0.553327 -0.293901 0.386680 0.320137 0.000621 -0.615627 -0.080849 -0.265668 -0.815536 -0.159340 0.176607 -0.576052 0.059802 -0.105016 0.493950 0.367003 -0.455692 -0.265642 -0.705900 -0.011062 -0.118704 0.455182 0.396087 -0.354985 -0.047857 -0.246693 0.409274 0.330011 0.295035 0.253221 -0.390198 -0.264403 -0.242777 -0.261231 0.301325 
受试者 -0.106257 -0.051413 0.465839 -0.019754 0.111136 0.025605 -0.596150 -0.280183 -0.415299 -0.439373 0.093445 0.238141 -0.270766 -0.433187 0.397639 0.234148 0.171968 -0.486291 -0.033828 0.345511 -0.223928 0.525642 -0.034226 -0.537623 -0.748464 0.265253 0.187995 0.104699 -0.276498 -0.851378 0.188334 0.140786 -0.146084 0.021847 -0.370615 -0.379231 0.585299 -0.479280 0.316711 -0.444314 0.700965 0.038219 0.021588 0.231890 -0.101250 -0.317096 0.355200 0.615908 0.046705 -0.401723 
发生 0.202643 -0.010487 0.736970 0.306719 0.141111 0.250308 0.441697 0.044182 -0.091460 0.531404 0.278952 0.509396 -0.172257 -0.256549 -0.237913 0.275919 -0.248380 0.220722 -0.121065 0.050877 -0.105172 0.120125 0.011616 -0.389592 0.027492 -0.059476 0.003347 0.445059 -0.067786 -0.075255 0.061697 -0.043347 0.174196 -0.093877 -0.357165 0.015598 -0.084222 0.599506 0.331333 -0.316286 -0.416762 -0.210508 -0.133262 0.129384 0.282338 -0.032861 0.021940 0.324853 -0.318608 0.088877 
频率 -0.199656 -0.348404 -0.482977 -0.509330 -0.051080 0.270024 0.274250 -0.018766 0.203282 0.077934 0.563192 0.363999 -0.051539 -0.372008 0.651237 -0.329274 0.018081 0.357807 -0.037063 -0.096033 -0.139265 -0.109438 0.809995 -0.639674 -0.529640 -0.272067 0.385929 0.323071 -0.098086 -0.334166 0.381167 0.235095 0.534239 0.077038 0.100854 -0.042081 0.112877 -0.439137 0.770943 -0.331858 0.210395 -0.334466 0.126315 -0.312678 -0.321993 -0.539477 0.098283 -0.585747 0.198945 0.083194 
病例 -0.330980 -0.221284 -0.454672 0.160875 0.046252 0.107601 0.066069 -0.210342 -0.303895 -0.530300 0.153367 0.105111 -0.378955 -0.452149 0.400665 -0.250019 -0.563294 -0.085382 -0.591826 -0.368549 0.011733 -0.702295 -0.126728 -0.061211 -0.191234 0.167925 0.201026 0.602936 0.276523 0.226547 0.341712 0.574019 -0.469106 -0.063093 -0.236163 -0.658509 0.160317 -0.097011 0.375126 0.047901 0.155074 -0.511851 0.289644 0.300108 0.505490 -0.613206 -0.263451 0.218962 -0.091904 0.209112 
证实 -0.229599 0.009804 -0.473672 -0.089982 0.014445 -0.508727 0.256570 -0.111482 -0.213170 -1.061100 -0.079565 -0.062527 -0.172871 0.290199 -0.165100 -0.038920 0.759599 -0.172791 0.637040 0.185045 0.633792 0.046207 -0.285464 -0.145076 0.484602 0.244722 -0.077978 0.217277 0.074005 0.301069 0.158693 0.354571 -0.541512 -0.778932 0.255545 -0.070353 0.395830 -0.278923 0.164383 -0.015413 -0.179704 -0.580982 -0.111551 -0.009927 -0.096591 -0.673935 0.085321 -0.006309 0.201457 -0.293433 
连锁 0.738324 0.232226 -1.416130 0.172682 -0.200971 -0.211649 -0.291116 0.502884 0.266156 -0.068434 -0.383651 0.363153 -0.648924 -0.175214 0.567003 -0.316559 0.363830 0.373075 0.666490 0.123702 0.319397 0.274949 0.268252 -0.509480 0.448086 0.207144 -0.167160 0.185286 0.220418 -0.578146 0.017161 0.576675 -0.776603 -0.248156 0.235589 0.549225 -0.066909 0.196069 0.235825 -0.179329 -0.140091 -0.370922 -0.417297 0.208554 0.339734 -0.460922 -0.481000 -0.540727 -0.040926 0.223550 
GSTM1 0.257107 -0.081978 0.186907 -0.168969 0.409708 -0.022231 0.375946 -0.461621 -0.032663 -0.263300 0.105864 0.557882 -0.003412 -0.210624 1.056574 0.457927 -0.047341 0.271276 -0.425424 0.104280 0.088766 0.485305 0.346286 -0.790940 0.106840 0.334857 0.321544 0.883058 -0.074112 0.597447 -0.264687 -0.599866 -0.095054 -0.793908 0.094261 -0.194800 0.542522 0.054797 -0.642933 -0.272704 -0.380675 0.060245 -0.073607 0.284305 -0.080950 -0.404029 0.244067 0.610686 0.874325 -0.278453 
男性 0.363564 0.322283 0.296152 0.116324 0.206974 0.041778 -0.525859 -0.149765 -0.569328 -0.203840 0.354581 0.440714 -0.412817 0.404052 0.687746 -0.302193 -0.326249 -0.340103 -0.615539 0.196743 -0.153511 0.050851 0.326246 -0.331688 0.167959 -0.509786 0.477932 -0.073701 0.214433 -0.108216 -0.182523 0.045304 -0.674971 -0.374700 -0.123103 -0.054958 -0.193117 0.214090 0.643155 -0.178805 -0.736324 0.984399 -0.006695 0.656107 -0.352050 -0.338021 -0.153536 -0.145072 0.245811 0.187018 
易感 -0.242146 0.309951 -0.124379 0.123793 0.266471 -0.748090 0.239512 0.038988 0.103596 -0.170105 0.108365 0.455910 0.103159 0.321844 0.025824 0.609230 0.232124 -0.003691 0.286165 0.385873 0.298223 0.026396 -0.484022 -0.021238 0.093231 0.365536 -0.456980 0.441477 0.123802 0.574777 0.668825 -0.240042 0.008583 -0.212966 -0.466151 -0.675438 0.185581 0.191948 -0.272687 0.202625 -0.029478 0.056689 -0.098757 -0.054517 -0.180496 0.059683 -0.321945 -0.341709 0.044579 -0.171107 
核苷酸 0.120453 -0.062963 -0.947604 -0.019528 -0.892130 0.758908 0.133129 0.170816 -0.285822 -0.508147 -0.590412 0.170437 0.025736 -0.548253 -0.520426 -0.114032 -0.422042 0.076717 0.580031 0.297331 -0.148328 -0.139976 -0.327745 -0.543504 -0.484576 0.825881 -0.731395 0.324924 0.330904 0.167888 0.116718 -0.367293 -0.818249 -0.221280 -0.120605 0.122828 1.006004 -0.080029 0.422571 -0.066138 -0.347267 0.663702 0.847661 -0.314659 0.211405 0.435452 0.232279 0.296382 -0.535087 0.202882 
重复 -0.196477 0.637857 0.121920 -0.305080 0.099617 0.698368 -0.005608 0.156087 -0.147319 -0.154562 -0.155723 -0.158254 -0.290608 -0.533099 -0.473271 0.132837 -0.012727 0.038688 0.218946 0.100951 -0.350604 -0.094109 0.190665 -0.603798 -0.411705 0.912827 -0.737667 -0.681433 0.084372 -0.545265 0.429278 -0.044177 0.106674 -0.105816 -0.048385 0.176988 0.654586 0.071140 0.218331 0.272305 0.137277 0.409940 0.222276 0.126118 0.874164 0.480548 0.026543 0.248406 0.031097 -0.112064 
' 0.139825 0.197214 -0.186931 0.572564 -0.451662 -0.102023 0.408084 0.059328 0.282835 -0.005747 0.102809 0.051992 0.505497 -0.355858 0.703883 0.051896 -0.547780 -0.053526 0.637790 -0.306178 -1.088576 -0.227234 0.121379 -0.870713 -0.437516 0.451993 -0.861119 -0.214915 0.503066 -0.204468 -0.136344 0.166730 0.179232 -0.387070 0.304829 0.181352 -0.004282 0.591057 -0.319547 0.183606 -0.359169 -0.391109 -0.022551 0.076057 0.544466 -0.404274 -0.363319 0.080800 -0.380716 0.228979 
缺乏 0.005175 0.367881 -0.384235 0.103327 0.545243 0.304449 0.331551 0.002842 0.121256 -0.224334 -0.073017 0.473249 -0.340783 -0.348303 0.520526 -0.044209 0.074901 -0.112922 -0.706840 0.061823 -0.351387 -0.201889 -0.003085 0.190794 -0.573529 0.270413 -0.210731 0.380266 0.648443 -0.064789 0.173285 0.051245 0.014538 0.292469 -0.216043 0.028332 0.125717 -0.186598 0.419222 0.188479 -0.262665 -0.555129 0.521436 -0.524544 0.453350 -0.930135 -0.095366 -0.005153 0.439549 -0.140012 
DAAO 0.025000 -0.240842 -0.187761 -0.710338 -0.244975 -0.369283 0.850665 0.057329 -0.337366 -0.466671 0.208348 -0.236390 -0.451697 0.768661 -0.357919 -0.040808 0.519915 0.584345 -0.302943 0.702650 1.282723 0.580190 0.404329 0.301940 0.640650 0.380436 0.109294 0.457222 -0.433161 0.352341 0.686238 0.372277 -0.614015 -0.437934 0.014442 -0.462870 0.434546 -1.050618 0.315032 0.348540 -0.247605 0.214631 0.360874 0.000821 0.344475 0.397935 0.017776 -0.186423 0.041452 -0.364840 
0 0.635214 0.150968 0.743452 -0.120292 0.155755 -0.455865 -0.254918 -0.150718 0.186571 -0.357337 0.400752 1.215458 -0.258770 -0.775480 0.441369 0.883759 -0.077524 0.516540 -0.304131 0.841992 -0.126490 0.279124 0.522023 -0.825874 -0.039079 -0.125828 -0.175078 0.170499 -0.296318 0.677587 -0.519282 -1.317001 -0.557948 -0.419780 -0.452022 -0.501227 1.021965 0.081818 -0.011255 -0.298200 -0.457006 0.837988 0.327462 0.053853 -0.676580 -0.141621 0.927485 -0.134670 0.853252 -0.752604 
也 -0.125238 0.108274 -0.199057 0.261924 -0.127335 -0.207205 0.177481 0.100344 -0.268552 0.007906 -0.505082 0.384793 0.099546 -0.310616 0.529122 0.185635 0.189217 -0.237769 0.253447 -0.036885 0.170093 0.051316 0.116572 -0.241934 -0.021703 0.746125 -0.453920 0.162129 -0.261807 -0.086126 0.534325 -0.067871 0.050455 -0.405620 0.172268 0.659766 0.334753 0.183210 0.014916 -0.281460 0.110549 -0.003906 0.168302 0.193602 0.646904 0.621259 -0.686011 0.082265 -0.043348 0.170271 
调节 0.770482 -0.277915 -0.156078 0.057491 -0.356859 -0.320967 0.570096 -0.571142 0.270274 -0.281880 -0.047927 0.452142 0.304311 -0.172865 -0.373981 0.891824 0.145586 -0.280754 0.373667 -0.563023 -0.104521 1.140817 -0.254411 -0.153307 -0.130586 -0.147609 -0.384824 -0.035797 0.787500 -0.434942 0.138940 0.102782 0.428020 0.267768 -0.123911 0.821372 -0.166921 -0.417551 0.735799 0.245128 -0.071188 -0.074907 0.057786 0.192635 -0.267924 0.142987 -0.375900 0.120778 -0.481406 0.048259 
反应 -0.473338 0.652057 0.111898 0.576915 0.247799 0.020162 0.278537 0.094979 -0.553947 0.172690 -0.266224 0.077232 0.212924 0.139588 -0.305815 0.354069 0.210221 -0.144820 0.176111 0.241939 0.403542 0.126060 -0.543453 -0.262450 -0.263712 -0.219529 -0.325208 -0.275766 0.016553 -0.082052 -0.060932 -0.090425 -0.075681 -0.141007 0.435436 0.107562 0.075392 0.592141 0.802208 -0.291306 -0.121547 0.295827 -0.267900 0.332530 -0.096606 0.314785 -0.002395 -0.061501 -0.203371 0.566612 
冠状动脉疾病 -0.398360 -0.048462 0.133581 0.158027 0.541138 0.065334 0.463131 -0.135070 -0.072784 -0.098359 0.098711 0.082748 -0.871864 -0.321515 -0.059789 0.096382 -0.257835 -0.152695 -0.644272 0.283480 -0.354049 0.580250 -0.010302 0.196560 0.035737 -0.397947 0.263040 -0.552248 0.100405 -0.483985 0.160393 -0.408782 0.005336 -0.406118 -0.151322 -0.087905 -0.175345 0.284036 0.386096 -0.323901 -0.021306 -0.249690 0.225944 -0.151414 0.052227 -0.345280 -0.059888 -0.271216 -0.077657 0.170605 
4G 0.445535 0.466707 -0.387567 -0.234252 0.154419 -0.120979 0.203523 -0.101627 0.060701 -0.347058 0.271788 0.256328 -0.782410 -0.304913 -0.249647 -0.129770 -0.097544 -0.145363 0.502159 -0.312592 -0.026148 0.465130 0.188888 0.009714 -0.069696 0.030319 0.119609 -0.017471 0.287251 -0.478683 -0.468292 -0.819995 0.378443 -0.348550 -0.477398 -0.254615 0.125277 0.379836 0.299186 -0.472835 -0.270793 -0.607706 -0.457620 -0.054841 0.111143 -0.612334 0.433396 -0.328562 -0.387318 -0.194722 
P -0.402302 0.237289 0.620399 0.000946 -0.206792 0.374196 0.639469 0.482611 -0.212658 -0.451640 0.431574 -0.361898 -1.082431 0.564648 -0.653296 0.308971 0.135950 0.295777 -0.645046 0.030168 -0.514531 0.338496 0.425060 0.188506 1.125489 -0.913935 0.746525 -0.084998 0.291985 0.258926 0.834951 0.486354 -0.366049 0.047444 0.255918 -0.223284 -0.624463 -0.420142 0.815944 0.288547 -0.264220 -0.325329 0.436345 -0.206145 0.049859 -0.980317 0.102141 -0.877064 0.001134 -0.188839 
阿尔茨海默氏病 0.455827 0.282960 -0.061685 0.412621 -0.098443 -0.767257 -0.129135 -0.445930 0.331424 -0.210478 0.563525 0.313014 -0.810316 -0.194306 0.090705 -0.046367 -0.336373 0.148127 -0.310400 0.458218 -0.417076 0.043651 0.234568 -0.761005 0.424200 -0.419450 0.376157 0.200237 0.027946 -0.013500 0.438711 0.607175 0.172710 0.094116 -0.395946 -0.160543 0.212821 -0.620418 0.269428 -0.425375 0.469819 -0.744015 -0.406550 0.142390 0.054448 -0.313011 -0.217191 0.033612 0.108055 -0.310058 
更 -0.198563 0.067613 0.085048 0.100477 -0.084461 -0.012290 0.001780 -0.098026 -0.131947 -0.085332 -0.190207 -0.078998 0.246631 0.094918 0.296324 0.000359 -0.157410 -0.282994 0.335708 0.477243 -0.199940 -0.031232 0.030745 -0.172528 -0.228715 0.265127 -0.206393 0.026593 -0.244368 -0.449076 -0.502941 0.221117 -0.367028 -0.910541 0.023378 0.086171 -0.056102 0.178816 0.173315 -0.030127 -0.083428 0.173019 -0.077674 0.611700 0.209047 -0.652402 0.279751 0.122318 -0.204131 -0.043205 
常见 0.571814 0.601591 -0.522457 0.290836 -0.345430 0.116639 0.464458 -0.289801 0.148084 -0.042871 0.053599 0.309642 -0.158761 0.132016 -0.361457 -0.150970 0.015244 -0.314861 0.576853 -0.213160 -0.851541 0.042843 0.012287 -0.025151 -0.365355 0.118039 -0.046875 0.036119 0.270696 -0.369405 0.002432 -0.631836 0.407987 0.391625 -0.180034 0.065055 -0.181580 -0.462264 0.600549 -0.497648 -0.004018 -0.545465 0.494875 0.030105 -0.381143 -1.281507 -0.224501 -0.326099 -0.237298 -0.307764 
证明 -0.006816 0.021943 -0.018329 -0.421348 -0.063676 0.336439 -0.238851 -0.109504 -0.433535 -0.326092 -0.400571 0.537517 0.304792 -0.702556 0.226992 0.457203 0.289136 -0.299147 -0.273636 -0.336727 0.342869 -0.081989 -0.032180 0.020034 -0.352811 0.575070 -0.912513 0.142637 -0.123709 0.120217 0.289335 -0.333116 -0.279593 -0.500471 0.085301 0.442770 0.361040 -0.213426 0.566382 -0.023874 0.026358 0.338722 0.784957 0.318150 0.386671 0.667690 -0.204863 0.343472 0.246981 -0.128319 
到 -0.395762 -0.561760 -0.692532 0.016928 -0.285834 -0.178236 0.276617 -0.517485 0.361192 -0.761514 0.340944 -0.462700 -0.088866 -0.488283 0.583735 -0.076931 -0.051186 -0.506367 -0.005046 0.171994 0.228751 0.550090 0.238125 -0.436635 0.108201 -0.041682 0.734736 0.010699 0.540258 -0.098159 -0.327644 0.254952 -0.221474 0.052828 -0.131945 -0.033393 0.191553 -0.574498 0.142796 0.100457 -0.055380 -0.332214 -0.347232 0.026594 0.641006 -0.638791 0.193655 0.532589 0.513877 0.502737 
潜在 0.110833 -1.085701 -0.685219 -0.263086 0.171940 -0.009829 0.150086 -0.057574 0.378677 -0.593457 0.453422 0.047162 0.717580 -0.436987 0.285372 -0.480306 -0.483797 0.162653 -0.019015 0.265711 0.374642 1.139218 -0.385661 -0.444998 0.516397 -0.066756 -0.124472 0.180860 0.092050 0.039930 0.318307 0.066698 0.059348 -0.811594 -0.076248 -0.097130 0.351638 0.277196 0.481120 -0.339175 -0.139708 -0.017800 -0.619041 0.142628 0.823554 0.546017 0.328934 0.309394 -0.354614 0.255728 
不同 -0.479471 -0.329204 -0.077252 0.135203 -0.446281 -0.191278 0.297888 -0.217013 0.011674 -0.560826 0.291836 0.367903 0.659356 -0.348048 -0.098493 -0.054915 0.041701 -0.250847 0.676348 -0.187532 -0.131814 0.051363 0.217735 -0.443901 -0.160474 -0.087737 -0.203205 0.692470 -0.212039 -0.253703 0.312615 0.561317 0.442344 0.494760 0.148728 -0.474970 -0.198458 -0.084057 0.589550 0.334703 0.058136 0.608709 0.402553 -0.070948 -0.425998 0.201884 0.067924 0.215010 0.189713 -0.147862 
观察 -0.475990 -0.470325 -0.459529 -0.265120 -0.358269 -0.157958 0.538497 -0.108208 0.380007 -0.616491 0.655587 -0.457044 0.205326 -0.815257 0.473697 -0.045299 -0.148772 -0.616803 -0.004836 -0.288087 0.295109 0.377677 0.170351 -0.562057 -0.060783 0.260724 0.374496 0.102344 0.296592 -0.055954 -0.302831 0.650758 0.290899 -0.134805 -0.209374 -0.188037 -0.015273 -0.732375 0.139806 0.093561 -0.182351 -0.197305 -0.288977 0.052007 1.010226 -0.288916 0.508040 0.394750 0.390106 0.451944 
出现 -0.534794 -0.596128 -0.102010 -0.274758 -0.108495 -0.333546 0.353776 -0.073595 -0.226632 -0.641167 0.848682 -0.256062 -0.126168 -0.239913 0.718578 0.260352 0.051010 0.227576 0.172309 0.434132 -0.002624 0.404599 -0.565556 -0.225997 0.130297 0.304350 0.516257 -0.108305 0.165934 -0.083071 0.180696 0.166744 0.308325 0.270367 -0.072123 0.327022 -0.260399 -0.812682 0.098585 -0.181142 -0.326342 -0.512781 -0.107608 -0.101021 0.533961 0.008689 -0.014310 0.023548 -0.570229 0.331068 
于 -0.286716 -0.023855 -0.041414 0.281911 1.023414 -1.008461 -0.245579 0.571997 0.305610 -0.444254 0.100789 0.122342 0.013861 -0.164461 0.045152 0.394247 0.010738 -0.656641 -0.093275 0.272358 -0.092356 0.331999 0.371683 0.560010 -0.395805 0.429120 -0.377176 -0.390942 -0.184167 -0.352923 0.432308 -0.050572 0.870134 -0.035524 -0.087282 -0.278855 -0.473753 0.171128 0.262936 -0.122283 -0.332488 0.527282 -0.113777 0.195493 0.282475 0.039149 -0.435581 -0.397972 -0.351241 -0.069757 
被 -0.189997 -0.033323 -0.414337 0.026512 0.473051 -0.105300 0.307755 -0.284737 0.130867 -0.247845 0.306762 0.220843 0.056534 -0.179990 0.542880 0.403683 -0.063776 0.131310 -0.042750 -0.066747 -0.101526 0.002673 -0.221123 -0.585752 0.232136 0.307355 -0.013826 0.450758 -0.376748 0.238718 0.268168 0.447621 0.322683 -0.148280 0.117675 -0.194479 0.357104 -0.268379 -0.091877 -0.178501 0.109752 -0.412159 -0.461938 0.287992 0.049917 -0.556915 -0.052190 0.130234 -0.224411 -0.198396 
人类 0.132636 -0.271150 -0.634499 -0.443577 -0.358220 -0.281210 0.591045 -0.144720 0.403642 -1.141807 -0.341763 0.041085 0.081695 0.118272 -0.522250 0.369036 0.220168 -0.086525 0.552544 -0.180060 0.156540 0.124906 -0.697824 -0.313479 0.240761 -0.017785 -0.239050 0.222320 -0.097241 0.374624 0.297598 0.301993 -0.189693 -0.240256 0.158345 0.146403 0.301889 -0.489730 0.481324 0.016983 -0.144957 -0.126223 -0.037293 -0.178207 -0.583376 -1.142889 0.023138 0.088956 -0.001168 0.090984 
虽然 -0.450704 0.059877 -0.300418 -0.239815 0.011001 0.182708 0.042842 -0.129167 0.018459 -0.413295 -0.256070 0.145183 0.483475 0.285733 0.364308 0.183313 0.273421 -0.397427 0.444624 -0.392215 0.144621 0.254382 -0.295589 0.041034 -0.325948 0.310204 -0.287000 -0.296773 -0.515701 -0.000036 0.284281 0.736276 0.050000 -0.586972 0.030160 -0.357310 -0.118116 0.250888 -0.131086 0.279125 0.402821 0.278743 -0.101942 0.747654 -0.048145 -0.542642 -0.354259 0.069931 -0.046716 -0.372323 
细胞 0.088130 0.054179 0.157457 0.311542 0.210826 0.077315 0.000995 -0.057598 0.304702 0.050586 0.144705 0.296246 -0.010327 -0.602624 0.060001 0.619483 0.438730 -0.596146 0.019228 -0.895547 -0.548926 0.602781 -0.603957 0.080639 0.295175 -0.261048 -0.053935 0.282298 1.416508 -0.174614 -0.036871 -0.531641 0.155233 0.440894 0.103358 0.176768 -0.369020 -0.092877 0.350746 -0.249745 0.545257 0.192135 -0.395254 0.115956 0.083664 -0.025142 -0.405180 0.068059 0.060360 0.159662 
PAI 0.343810 0.416966 -0.276524 -0.360114 -0.253844 0.097231 0.279205 -0.360394 0.235018 -0.432623 -0.502480 0.042006 -0.414645 -0.073353 0.200220 0.329174 -0.180285 -0.157879 0.328706 -0.437607 -0.069796 0.493439 0.085091 -0.169301 -0.191133 -0.022545 -0.230321 -0.036148 0.218396 -0.445077 -0.684076 -0.985390 0.424203 -0.340847 -0.164378 -0.013627 0.183549 -0.217285 0.464905 -0.236252 -0.069736 -0.857444 -0.516363 -0.020919 -0.252423 -0.767074 0.175140 -0.167571 -0.568192 -0.292192 
+ 0.085106 -0.435640 0.074192 -0.306199 -0.064752 -0.407702 -0.038008 0.185065 -0.156631 -0.278741 -0.152669 -0.048717 -0.168711 0.001591 0.461484 0.924272 0.167174 -0.186674 -0.716121 -0.288340 -0.484325 0.210909 -0.077936 0.060190 -0.154839 -0.035231 -0.029727 0.433174 -0.490042 -0.154723 0.297046 -0.234401 0.726466 0.370337 0.267020 -0.596463 -0.199899 0.278569 -0.114180 0.085797 -0.159922 0.685786 -0.700685 0.175278 0.467491 -0.551330 0.179666 -0.175479 -0.471655 0.424058 
着 -0.108691 -0.236394 -0.645834 0.036014 -0.078735 0.456584 -0.154133 -0.084922 -0.455175 0.136971 -0.836164 -0.052561 0.472960 0.761010 0.373635 -0.500558 0.047462 -0.618943 -0.299936 -0.125878 0.389132 0.901712 -0.165748 0.095114 -0.347276 -0.032482 -0.284713 0.465934 0.333602 -0.568366 1.034374 -0.175080 -0.643987 0.025073 -0.361418 -0.409972 -0.403721 -0.023015 0.397291 -0.335294 0.414834 -0.223647 0.165356 -0.321028 0.163903 0.670369 -0.269283 0.256212 0.806514 -0.054639 
相互作用 -0.151368 -0.387259 -0.000465 -0.010297 0.355783 -0.293925 0.214829 -0.169465 -0.115465 -0.152169 0.273298 0.366943 0.288715 -0.141272 0.068671 0.420282 -0.151176 0.126842 -0.234913 0.327203 -0.001255 -0.043422 -0.396174 0.081545 0.364530 -0.106727 -0.011728 -0.027218 -0.336991 -0.039943 0.710107 -0.028997 0.147876 0.181302 0.250523 -0.247090 0.027057 0.157056 0.408322 0.215281 0.239182 0.160495 -0.019940 -0.031526 0.324412 0.071213 -0.282158 -0.060678 0.181198 -0.087783 
但是 -0.471379 0.139853 -0.428026 0.271261 0.564545 0.118554 0.024174 -0.211981 -0.309934 -0.336507 0.153632 0.006386 0.064579 0.264627 0.318009 0.026572 0.063369 -0.029062 0.086156 0.118733 0.076965 0.507682 -0.399032 -0.508196 -0.304238 -0.085815 0.064168 0.065771 0.023950 0.294823 0.148135 -0.383523 -0.281361 -0.505903 0.158947 -0.099237 0.262364 0.468614 -0.356173 -0.564639 -0.129286 0.044443 -0.043883 0.148794 -0.050529 -0.198688 -0.162496 0.290991 0.079831 0.103434 
早期 -0.012173 0.008121 0.104358 -0.221827 0.694303 0.152010 0.027518 -0.272957 -0.213377 -0.166961 -0.193361 0.414843 -0.721269 -0.323248 0.386762 0.018537 -0.613692 -0.992752 -0.921678 0.509395 0.053847 -0.060065 -0.580318 0.133125 0.269961 -0.425769 0.197487 -0.127310 0.056705 -0.129142 0.194697 -0.038676 0.327354 -0.496116 -0.025780 0.046082 0.207101 0.130199 0.188727 -0.024987 0.319519 0.281090 0.041603 0.073549 0.678696 -0.076127 -0.053768 0.032776 0.163638 0.136624 
ELAC2 0.152310 0.863432 -0.407796 0.378595 0.241390 0.121011 0.163010 -0.399417 -0.224349 -0.533312 -0.120225 0.240595 -0.190142 0.042516 0.679501 -0.767094 -0.341827 -0.253956 -0.639161 0.306654 -0.225803 -0.633958 0.324661 -0.006932 -0.801196 0.640785 -0.276839 0.112477 -0.079454 -0.095776 -0.039206 0.399222 -0.637889 -0.017565 -0.246448 -0.500409 0.363659 -0.578956 0.234580 0.345664 -0.443942 -0.486618 0.711250 -0.062178 0.045155 -0.487667 0.057904 0.140626 0.445943 -0.006624 
= 0.362153 0.421844 0.875172 -0.027988 -0.321168 0.658939 0.348172 0.268783 -0.610895 -0.123512 0.805927 0.259655 -0.793017 0.961378 -0.007488 -0.362047 -0.041160 0.663402 -0.548855 0.311748 -0.201596 0.813600 0.459535 -0.239265 1.016814 -0.597833 0.777320 0.462924 0.629037 0.034683 0.437786 0.830410 -0.863466 -0.045520 0.072530 0.108746 -0.035106 -0.402053 0.873259 0.267147 -0.463776 -0.419445 0.009851 -0.133217 0.951813 -0.474165 0.654976 -0.794007 0.020415 -0.199474 
进展 -0.221236 -0.146521 0.161503 0.143952 0.120616 0.212111 -0.285396 0.231850 -0.220701 0.163758 -0.049370 0.438732 0.184795 -0.248975 0.260218 -0.208028 0.406153 -0.293241 0.008911 0.477804 0.299764 0.628736 -0.324551 0.153533 -0.377667 -0.354847 -0.148596 -0.144439 0.703096 0.087112 0.368787 -0.120762 -0.370971 -0.107761 0.136541 -0.074925 -0.052007 0.109034 0.665051 -0.147998 0.230160 0.112499 -0.174110 0.000513 -0.005973 0.639059 -0.254529 0.232804 0.041826 0.296634 
肺癌 0.501161 -0.330663 0.026493 0.606553 0.304280 -0.808559 -0.195840 -0.747081 -0.093389 -0.192027 0.354238 0.635797 0.107840 -0.579027 -0.077974 0.535631 0.019524 -0.467319 0.206347 -0.387381 -0.114087 0.109236 -0.154309 -0.080256 -0.018783 0.022642 -0.186338 0.603585 0.335406 0.434220 -0.278191 -0.576694 -0.171160 -0.393366 -0.013350 -0.130184 0.111793 0.156337 0.134127 -0.348413 -0.024264 0.111779 0.170654 0.150318 0.288219 0.328315 -0.122875 0.343205 0.075931 0.292922 
功能 -0.000708 0.007528 0.015775 -0.142165 -0.263644 -0.290508 0.402054 -0.083962 0.196846 -0.383304 -0.030368 -0.063927 0.203694 0.076723 -0.479287 0.161393 0.204309 -0.335149 0.307908 -0.203197 -0.014676 0.558413 -0.528652 -0.332035 0.155567 0.023466 0.142262 0.047485 0.579530 0.001079 0.621106 -0.325733 0.379827 0.317405 -0.208558 -0.152302 0.035667 -0.284180 0.617863 -0.295421 0.250219 -0.238562 -0.037654 -0.240148 0.017525 -0.272044 -0.489367 0.043501 0.026882 -0.235748 
1型糖尿病 -0.534147 0.058852 0.203726 0.122653 -0.152060 -0.131160 0.526037 -0.095962 0.093060 -0.325116 0.025047 0.284531 -0.039728 -0.033328 0.237047 0.394159 0.397802 -0.347932 -0.224276 -0.164373 -0.383848 0.051857 -0.084711 -0.071962 -0.030616 0.457178 -0.386843 0.757587 -0.268147 -0.089939 0.318140 0.036477 0.150140 0.479375 0.006609 -0.229658 -0.143024 0.201664 -0.144648 0.183707 -0.049563 0.044031 -0.009824 -0.260984 -0.039151 0.170237 0.189377 0.203045 0.155750 0.124323 
β 0.191755 -0.093020 -0.278080 -0.049412 -0.237252 0.243643 0.318925 0.259085 0.271552 -0.111807 -0.341384 0.439312 0.239096 0.248717 -0.119300 0.531382 -0.221606 0.530128 0.101480 0.201435 -0.288785 -0.392368 0.189738 -0.386538 -0.526094 -0.171318 0.154134 -0.127959 -0.116900 -0.808354 0.039279 -0.186447 0.496365 0.042566 0.216534 0.260149 -0.296756 -0.399972 0.236930 -0.073042 0.016129 -0.302016 0.218366 -0.136112 -0.733352 -0.868286 -0.210496 -0.311067 -0.373323 0.002892 
表型 -0.387639 -0.285148 -0.592708 0.016788 0.072050 0.385913 0.561890 0.489702 -0.021805 -0.094892 -0.186787 0.790880 0.549254 0.189676 0.253153 0.359943 -0.044795 -0.048709 0.702165 0.357333 0.181566 0.097239 -0.237414 -0.009842 -0.115083 0.275326 0.095949 0.011131 -0.139272 -0.505583 -0.132647 0.071011 0.065309 -0.041307 -0.003340 0.107493 -0.039074 -0.045908 0.550899 -0.008305 -0.309755 -0.054457 -0.024252 0.103351 -0.472147 -0.163603 0.000865 -0.399283 0.161256 0.434373 
临床 -0.894332 -0.237832 0.373337 -0.008904 0.045582 -0.101473 0.062949 0.384557 -0.309153 0.538328 -0.264165 -0.111770 0.762587 -0.287670 0.483914 0.356315 -0.153267 -0.285100 0.449903 0.260287 -0.094113 0.023445 -0.485565 0.204243 -0.132911 0.003837 -0.268660 0.475877 -0.144566 -0.197200 -0.005030 0.247785 0.060011 -0.529173 0.426151 -0.075858 -0.412844 0.604256 0.249077 -0.104528 0.122569 0.294675 -0.286404 0.675452 -0.130326 0.397267 0.089534 0.113953 -0.005629 0.491469 
高血压 -0.075272 -0.027892 -0.402455 0.072072 -0.071227 -0.434599 0.307301 -0.304344 -0.450232 -0.573440 0.130225 -0.205741 -0.376170 0.323589 -0.034202 0.419744 0.473475 -0.319906 0.019233 0.451915 -0.068655 0.069103 -0.398924 0.079148 -0.089981 -0.218136 -0.078494 -0.129737 -0.104861 -0.128429 0.173352 -0.214553 -0.048625 0.453692 -0.241226 -0.453967 0.390798 -0.194421 0.088345 -0.289772 0.298034 0.314958 -0.063876 -0.171063 0.082136 0.171713 -0.021027 0.275538 0.035333 0.037527 
GSTT1 0.484796 0.296560 0.483006 0.007009 0.168778 -0.170739 -0.255849 -0.384491 0.023879 -0.080409 0.097398 0.993224 -0.183553 -0.638326 0.194328 0.139703 -0.589890 0.348700 -0.177042 0.216832 -0.223194 0.249908 0.611805 -0.495234 -0.293485 -0.103763 0.056034 0.277105 -0.201046 0.526260 -0.092341 -0.741866 -0.058804 -0.373786 -0.714237 -0.329625 0.698568 0.009567 -0.351842 0.035690 -0.400346 0.450500 0.305368 -0.010200 -0.386092 -0.002870 0.248665 0.374782 0.732440 -0.579218 
群体 -0.655407 -0.002403 -0.698995 0.173458 0.147306 0.198610 0.644108 -0.662852 0.067969 -0.395040 0.102434 0.468134 0.141039 -0.303663 -0.236657 -0.513666 -0.217642 -0.539404 0.449945 -0.090069 -0.196281 -0.133580 0.049009 0.193709 -0.116574 0.018785 -0.111041 -0.177167 -0.691857 0.056018 0.501911 -0.268166 0.360808 0.402504 -0.309362 -0.330237 -0.220246 0.096415 0.287056 -0.199885 0.280982 -0.089502 -0.038995 0.471791 0.112734 -0.928960 -0.363195 -0.015077 0.274008 -0.021624 
CYP1A1 -0.332110 -0.045438 0.119859 -0.124241 0.244027 0.471002 0.062281 -0.286752 -0.198816 -0.320127 -0.179863 0.642873 -0.134454 -0.560028 0.655744 0.422814 0.076705 0.384388 -0.252918 0.169676 0.303592 0.233392 0.167019 -0.437005 0.062948 -0.042735 0.149979 0.125266 -0.386204 -0.030584 -0.480588 -0.563644 -0.024751 -0.429447 0.442134 -0.216860 0.699967 0.608058 -0.105555 0.547893 -0.525317 0.701990 -0.265772 0.348358 -0.248799 -0.032376 0.666065 0.127477 0.595198 -0.377664 
表达 -0.161032 0.033802 -0.230941 0.356617 -0.188449 -0.414140 0.322658 -0.544219 0.270827 -0.020306 0.241290 -0.050153 0.340392 -0.320653 -0.122216 0.131684 0.221608 -0.050545 0.390386 -0.234906 0.173185 0.905825 -0.440526 -0.396467 -0.007054 -0.139222 0.097394 -0.388905 0.852455 -0.264889 0.107238 -0.450485 -0.060157 0.055074 0.058613 -0.065247 0.209971 -0.308090 0.310706 0.169480 0.088414 -0.357333 -0.057117 -0.075962 0.133645 -0.172292 -0.397049 0.163226 0.191403 -0.231285 
介导 -0.233534 -0.961812 -0.220756 0.024985 0.117738 0.211358 -0.198283 -0.031560 -0.052360 0.555257 -0.013172 0.527689 0.639101 -0.838176 -0.146208 0.066826 -0.224510 -0.379610 0.703848 0.282427 0.585600 0.350602 -0.890192 -0.142243 0.300054 -0.565551 -0.128479 0.356090 -0.008027 -0.213857 0.141060 -0.638473 0.291634 -0.515443 -0.269623 0.109570 0.231938 0.584295 1.285865 -0.877081 0.092326 0.043264 -0.545160 -0.353206 -0.219083 0.364203 -0.060845 0.211709 -0.403692 -0.068706 
任何 -0.497679 -0.199181 -0.118059 0.068176 -0.081075 0.601631 0.337053 0.249292 -0.255914 -0.010063 -0.033556 0.169975 -0.147319 -0.262024 0.228279 -0.012570 0.307745 -0.004489 -0.105969 0.508833 0.236543 0.442856 -0.303353 0.048513 -0.195537 -0.324411 0.097748 0.207645 -0.327739 0.016933 0.200986 0.292989 -0.294545 -0.459200 0.539742 0.080987 0.336130 0.273793 0.168215 0.406898 -0.182021 -0.200139 0.022495 -0.072736 -0.021225 0.149993 0.289331 0.023182 0.073005 0.039619 
变化 -0.353163 0.108432 0.285443 0.551084 0.155432 -0.219649 -0.250432 -0.167074 -0.151863 -0.458237 0.150627 -0.167121 0.010857 0.012366 -0.351257 0.086709 -0.316900 -0.219367 -0.019308 -0.145399 -0.287530 -0.008263 -0.438359 -0.048891 -0.175580 -0.515794 0.235288 -0.293329 0.223843 0.091006 0.049034 -0.147401 0.020126 -0.080909 0.094465 -0.571512 -0.462412 0.116484 0.677791 -0.115075 -0.019969 0.439709 0.291791 0.285079 0.304098 -0.177989 -0.426407 -0.213621 -0.558997 0.389602 
统计学 -0.333696 0.081091 -0.282800 -0.379636 0.396363 -0.040534 0.840303 -0.045286 -0.234558 -0.139489 0.379541 0.418176 -0.010829 0.337798 -0.262574 0.445238 -0.001678 0.665536 -0.346087 0.986846 0.682952 -0.315599 -0.337187 -0.321459 0.005686 0.332570 -0.278148 0.413995 -0.227218 -0.077389 0.680927 0.254778 -0.128032 0.133014 -0.454362 -0.349786 -0.288836 -0.236918 0.599383 0.515939 -0.152258 -0.661760 0.635622 0.213166 0.233616 0.619947 0.279454 -0.970992 0.881187 -0.324888 
